{"learner":{"attributes":{"scikit_learn":"{\"_estimator_type\": \"classifier\"}"},"feature_names":[],"feature_types":[],"gradient_booster":{"model":{"cats":{"enc":[],"feature_segments":[],"sorted_idx":[]},"gbtree_model_param":{"num_parallel_tree":"1","num_trees":"100"},"iteration_indptr":[0,1,2,3,4,5,6,7,8,9,10,11,12,13,14,15,16,17,18,19,20,21,22,23,24,25,26,27,28,29,30,31,32,33,34,35,36,37,38,39,40,41,42,43,44,45,46,47,48,49,50,51,52,53,54,55,56,57,58,59,60,61,62,63,64,65,66,67,68,69,70,71,72,73,74,75,76,77,78,79,80,81,82,83,84,85,86,87,88,89,90,91,92,93,94,95,96,97,98,99,100],"tree_info":[0,0,0,0,0,0,0,0,0,0,0,0,0,0,0,0,0,0,0,0,0,0,0,0,0,0,0,0,0,0,0,0,0,0,0,0,0,0,0,0,0,0,0,0,0,0,0,0,0,0,0,0,0,0,0,0,0,0,0,0,0,0,0,0,0,0,0,0,0,0,0,0,0,0,0,0,0,0,0,0,0,0,0,0,0,0,0,0,0,0,0,0,0,0,0,0,0,0,0,0],"trees":[{"base_weights":[-1.9920032E0],"categories":[],"categories_nodes":[],"categories_segments":[],"categories_sizes":[],"default_left":[0],"id":0,"left_children":[-1],"loss_changes":[0E0],"parents":[2147483647],"right_children":[-1],"split_conditions":[-5.97601E-1],"split_indices":[0],"split_type":[0],"sum_hessian":[2.5E3],"tree_param":{"num_deleted":"0","num_feature":"30","num_nodes":"1","size_leaf_vector":"1"}},{"base_weights":[-1.5415943E0],"categories":[],"categories_nodes":[],"categories_segments":[],"categories_sizes":[],"default_left":[0],"id":1,"left_children":[-1],"loss_changes":[0E0],"parents":[2147483647],"right_children":[-1],"split_conditions":[-4.624783E-1],"split_indices":[0],"split_type":[0],"sum_hessian":[2.289439E3],"tree_param":{"num_deleted":"0","num_feature":"30","num_nodes":"1","size_leaf_vector":"1"}},{"base_weights":[-1.3363097E0],"categories":[],"categories_nodes":[],"categories_segments":[],"categories_sizes":[],"default_left":[0],"id":2,"left_children":[-1],"loss_changes":[0E0],"parents":[2147483647],"right_children":[-1],"split_conditions":[-4.008929E-1],"split_indices":[0],"split_type":[0],"sum_hessian":[1.9109393E3],"tree_param":{"num_deleted":"0","num_feature":"30","num_nodes":"1","size_leaf_vector":"1"}},{"base_weights":[-1.2194369E0],"categories":[],"categories_nodes":[],"categories_segments":[],"categories_sizes":[],"default_left":[0],"id":3,"left_children":[-1],"loss_changes":[0E0],"parents":[2147483647],"right_children":[-1],"split_conditions":[-3.6583108E-1],"split_indices":[0],"split_type":[0],"sum_hessian":[1.5285474E3],"tree_param":{"num_deleted":"0","num_feature":"30","num_nodes":"1","size_leaf_vector":"1"}},{"base_weights":[-1.1448935E0],"categories":[],"categories_nodes":[],"categories_segments":[],"categories_sizes":[],"default_left":[0],"id":4,"left_children":[-1],"loss_changes":[0E0],"parents":[2147483647],"right_children":[-1],"split_conditions":[-3.4346807E-1],"split_indices":[0],"split_type":[0],"sum_hessian":[1.1940414E3],"tree_param":{"num_deleted":"0","num_feature":"30","num_nodes":"1","size_leaf_vector":"1"}},{"base_weights":[-1.093383E0],"categories":[],"categories_nodes":[],"categories_segments":[],"categories_sizes":[],"default_left":[0],"id":5,"left_children":[-1],"loss_changes":[0E0],"parents":[2147483647],"right_children":[-1],"split_conditions":[-3.280149E-1],"split_indices":[0],"split_type":[0],"sum_hessian":[9.1955646E2],"tree_param":{"num_deleted":"0","num_feature":"30","num_nodes":"1","size_leaf_vector":"1"}},{"base_weights":[-1.055084E0],"categories":[],"categories_nodes":[],"categories_segments":[],"categories_sizes":[],"default_left":[0],"id":6,"left_children":[-1],"loss_changes":[0E0],"parents":[2147483647],"right_children":[-1],"split_conditions":[-3.1652522E-1],"split_indices":[0],"split_type":[0],"sum_hessian":[7.020569E2],"tree_param":{"num_deleted":"0","num_feature":"30","num_nodes":"1","size_leaf_vector":"1"}},{"base_weights":[-1.0242457E0,-3.9111346E-1,-1.0259851E0,-1.1034131E-2,-1.6411628E-1,-3.7932837E-1,-1.0277414E0,-1.1034131E-2,-1.6004053E-1,-3.7932837E-1,-1.0295111E0,-1.6004053E-1,-1.1034131E-2,-1.0312916E0,-3.9111346E-1,-1.0330836E0,-4.0249732E-1,-1.6411628E-1,-1.1034131E-2,-3.1046703E-1,-1.207492E-1,-1.6798693E-1,-1.1034131E-2],"categories":[],"categories_nodes":[],"categories_segments":[],"categories_sizes":[],"default_left":[0,0,0,0,0,0,0,0,0,0,0,0,0,0,0,0,0,0,0,0,0,0,0],"id":7,"left_children":[1,3,5,-1,-1,7,9,-1,-1,11,13,-1,-1,15,17,19,21,-1,-1,-1,-1,-1,-1],"loss_changes":[1.8713379E-1,1.500647E-1,2.1466064E-1,0E0,0E0,1.4018819E-1,2.1789551E-1,0E0,0E0,1.4018819E-1,1.9702148E-1,0E0,0E0,1.7700195E-1,1.500647E-1,1.8035889E-1,1.5983921E-1,0E0,0E0,0E0,0E0,0E0,0E0],"parents":[2147483647,0,0,1,1,2,2,5,5,6,6,9,9,10,10,13,13,14,14,15,15,16,16],"right_children":[2,4,6,-1,-1,8,10,-1,-1,12,14,-1,-1,16,18,20,22,-1,-1,-1,-1,-1,-1],"split_conditions":[-2.6349304E0,4.778884E-2,-2.704862E0,-1.1034131E-2,-1.6411628E-1,1.9649452E-1,-2.6914568E0,-1.1034131E-2,-1.6004053E-1,-4.9876936E-2,2.590716E0,-1.6004053E-1,-1.1034131E-2,2.6240757E0,4.7771087E-1,2.651439E0,2.5816298E-1,-1.6411628E-1,-1.1034131E-2,-3.1046703E-1,-1.207492E-1,-1.6798693E-1,-1.1034131E-2],"split_indices":[2,0,5,0,0,0,9,0,0,0,25,0,0,27,1,28,0,0,0,0,0,0,0],"split_type":[0,0,0,0,0,0,0,0,0,0,0,0,0,0,0,0,0,0,0,0,0,0,0],"sum_hessian":[5.333349E2,2.0800061E0,5.312549E2,1.0133363E0,1.0666697E0,2.0266726E0,5.292282E2,1.0133363E0,1.0133363E0,2.0266726E0,5.2720154E2,1.0133363E0,1.0133363E0,5.251215E2,2.0800061E0,5.2298816E2,2.1333394E0,1.0666697E0,1.0133363E0,5.2085486E2,2.1333394E0,1.1200032E0,1.0133363E0],"tree_param":{"num_deleted":"0","num_feature":"30","num_nodes":"23","size_leaf_vector":"1"}},{"base_weights":[-9.9734366E-1,-9.99619E-1,-8.441634E-2,-1.00402E0,-5.449209E-1,-6.62823E-1,-1.0106803E0,1.3835128E-1,-2.5196874E-1,1.668394E-1,-2.7562273E-1,-1.0573175E-1,-1.0130372E0,2.925133E-1,-1.7930715E-1,-1.0154176E0,-1.057449E-1,-3.0534562E-1,-1.0872585E-1],"categories":[],"categories_nodes":[],"categories_segments":[],"categories_sizes":[],"default_left":[0,0,0,0,0,0,0,0,0,0,0,0,0,0,0,0,0,0,0],"id":8,"left_children":[1,3,-1,5,7,9,11,-1,-1,13,-1,-1,15,-1,-1,17,-1,-1,-1],"loss_changes":[3.8031006E-1,2.6220703E-1,0E0,2.3770142E-1,2.1869717E0,2.3938003E0,2.477417E-1,0E0,0E0,2.642802E0,0E0,0E0,2.5201416E-1,0E0,0E0,2.3635864E-1,0E0,0E0,0E0],"parents":[2147483647,0,0,1,1,3,3,4,4,5,5,6,6,9,9,12,12,15,15],"right_children":[2,4,-1,6,8,10,12,-1,-1,14,-1,-1,16,-1,-1,18,-1,-1,-1],"split_conditions":[2.6986368E0,2.2511697E0,-8.441634E-2,-1.9886191E0,-9.450916E-1,-6.7499775E-1,-2.6349304E0,1.3835128E-1,-2.5196874E-1,-1.654747E-1,-2.7562273E-1,-1.0573175E-1,2.590716E0,2.925133E-1,-1.7930715E-1,2.6240757E0,-1.057449E-1,-3.0534562E-1,-1.0872585E-1],"split_indices":[16,28,0,9,13,2,2,0,0,25,0,0,25,0,0,27,0,0,0],"split_type":[0,0,0,0,0,0,0,0,0,0,0,0,0,0,0,0,0,0,0],"sum_hessian":[4.051232E2,4.0344482E2,1.678371E0,3.983808E2,5.0640416E0,9.552216E0,3.8882858E2,1.0203694E0,4.0436726E0,2.3339345E0,7.2182813E0,1.9243745E0,3.869042E2,1.0007079E0,1.3332266E0,3.8497968E2,1.9245442E0,3.830126E2,1.967045E0],"tree_param":{"num_deleted":"0","num_feature":"30","num_nodes":"19","size_leaf_vector":"1"}},{"base_weights":[-9.7144544E-1,-6.683168E-2,-9.7435683E-1,-9.7999054E-1,-4.747233E-1,-5.9252924E-1,-9.8852235E-1,1.4014332E-1,-2.405846E-1,-7.852245E-1,1.4130391E-1,-8.727719E-2,-9.915782E-1,-2.6729777E-1,-6.8244706E-3,-9.9465984E-1,-9.1343455E-2,-2.9933244E-1,-9.393556E-2],"categories":[],"categories_nodes":[],"categories_segments":[],"categories_sizes":[],"default_left":[0,0,0,0,0,0,0,0,0,0,0,0,0,0,0,0,0,0,0],"id":9,"left_children":[1,-1,3,5,7,9,11,-1,-1,13,-1,-1,15,-1,-1,17,-1,-1,-1],"loss_changes":[4.560852E-1,0E0,3.998413E-1,4.15802E-1,2.0285091E0,2.2191732E0,3.4020996E-1,0E0,0E0,6.260681E-1,0E0,0E0,3.180542E-1,0E0,0E0,3.0639648E-1,0E0,0E0,0E0],"parents":[2147483647,0,0,2,2,3,3,4,4,5,5,6,6,9,9,12,12,15,15],"right_children":[2,-1,4,6,8,10,12,-1,-1,14,-1,-1,16,-1,-1,18,-1,-1,-1],"split_conditions":[-2.704862E0,-6.683168E-2,2.2511697E0,-1.9886191E0,-7.810644E-1,1.1334355E0,-2.6349304E0,1.4014332E-1,-2.405846E-1,1.0591433E0,1.4130391E-1,-8.727719E-2,2.590716E0,-2.6729777E-1,-6.8244706E-3,2.6240757E0,-9.1343455E-2,-2.9933244E-1,-9.393556E-2],"split_indices":[5,0,28,9,27,7,2,0,0,27,0,0,25,0,0,27,0,0,0],"split_type":[0,0,0,0,0,0,0,0,0,0,0,0,0,0,0,0,0,0,0],"sum_hessian":[3.0781952E2,1.4926805E0,3.0632684E2,3.019606E2,4.366215E0,8.023744E0,2.9393686E2,1.0155417E0,3.3506734E0,7.0145235E0,1.0092198E0,1.7015656E0,2.9223532E2,6.012007E0,1.0025163E0,2.904849E2,1.7504189E0,2.887014E2,1.7835083E0],"tree_param":{"num_deleted":"0","num_feature":"30","num_nodes":"19","size_leaf_vector":"1"}},{"base_weights":[-9.4428444E-1,-5.566465E-1,-9.584479E-1,-7.9119414E-1,2.7697408E-1,-5.167886E-1,-9.697657E-1,-4.1803773E-3,-2.67503E-1,2.9405314E-1,-1.601485E-1,2.5279355E-1,-2.5441632E-1,-4.2958796E-1,-9.778973E-1,2.914207E-1,-1.6525978E-1,-2.3284762E-1,1.4432994E-1,-9.8215383E-1,-5.8213767E-2,-7.1128696E-2,-9.865587E-1,-2.97264E-1,-7.342535E-2],"categories":[],"categories_nodes":[],"categories_segments":[],"categories_sizes":[],"default_left":[0,0,0,0,0,0,0,0,0,0,0,0,0,0,0,0,0,0,0,0,0,0,0,0,0],"id":10,"left_children":[1,3,5,7,9,11,13,-1,-1,-1,-1,15,-1,17,19,-1,-1,-1,-1,21,-1,-1,23,-1,-1],"loss_changes":[7.5901794E-1,2.3081057E0,6.272125E-1,6.5902996E-1,2.2831411E0,2.198048E0,5.4167175E-1,0E0,0E0,0E0,0E0,2.3322408E0,0E0,1.9611791E0,5.265045E-1,0E0,0E0,0E0,0E0,4.6684265E-1,0E0,0E0,4.369049E-1,0E0,0E0],"parents":[2147483647,0,0,1,1,2,2,3,3,4,4,5,5,6,6,11,11,13,13,14,14,19,19,22,22],"right_children":[2,4,6,8,10,12,14,-1,-1,-1,-1,16,-1,18,20,-1,-1,-1,-1,22,-1,-1,24,-1,-1],"split_conditions":[-1.7610837E0,8.154437E-1,-1.9886191E0,-1.2296704E0,4.450118E-2,-6.7499775E-1,-2.1638198E0,-4.1803773E-3,-2.67503E-1,2.9405314E-1,-1.601485E-1,4.606729E-2,-2.5441632E-1,9.540589E-1,2.651439E0,2.914207E-1,-1.6525978E-1,-2.3284762E-1,1.4432994E-1,-2.3682432E0,-5.8213767E-2,-7.1128696E-2,2.6240757E0,-2.97264E-1,-7.342535E-2],"split_indices":[5,12,9,1,8,2,2,0,0,0,0,1,0,19,28,0,0,0,0,8,0,0,27,0,0],"split_type":[0,0,0,0,0,0,0,0,0,0,0,0,0,0,0,0,0,0,0,0,0,0,0,0,0],"sum_hessian":[2.3442166E2,9.683949E0,2.247377E2,7.597274E0,2.086676E0,6.781024E0,2.1795668E2,1.0000771E0,6.597197E0,1.0056155E0,1.0810604E0,2.1118207E0,4.6692033E0,4.0306726E0,2.1392601E2,1.0047123E0,1.1071082E0,3.026596E0,1.0040768E0,2.12519E2,1.407018E0,1.5712749E0,2.1094772E2,2.0939217E2,1.5555534E0],"tree_param":{"num_deleted":"0","num_feature":"30","num_nodes":"25","size_leaf_vector":"1"}},{"base_weights":[-9.1417897E-1,-4.877019E-1,-9.320501E-1,-6.61424E-1,1.4185426E-1,-4.5211786E-1,-9.464281E-1,-2.6353595E-1,8.713706E-2,-6.869951E-1,1.3665815E-1,-3.676712E-1,-9.568973E-1,-7.0491456E-3,-2.4599127E-1,-2.2250973E-1,1.4542753E-1,-9.625182E-1,-3.2426346E-2,-9.681136E-1,-4.979241E-2,-6.096534E-2,-2.9217267E-1],"categories":[],"categories_nodes":[],"categories_segments":[],"categories_sizes":[],"default_left":[0,0,0,0,0,0,0,0,0,0,0,0,0,0,0,0,0,0,0,0,0,0,0],"id":11,"left_children":[1,3,5,7,-1,9,11,-1,-1,13,-1,15,17,-1,-1,-1,-1,19,-1,21,-1,-1,-1],"loss_changes":[9.217224E-1,1.8746753E0,7.6049805E-1,1.9787982E0,0E0,1.7890285E0,6.557617E-1,0E0,0E0,5.012188E-1,0E0,1.8193655E0,6.72287E-1,0E0,0E0,0E0,0E0,5.592041E-1,0E0,5.12146E-1,0E0,0E0,0E0],"parents":[2147483647,0,0,1,1,2,2,3,3,5,5,6,6,9,9,11,11,12,12,17,17,19,19],"right_children":[2,4,6,8,-1,10,12,-1,-1,14,-1,16,18,-1,-1,-1,-1,20,-1,22,-1,-1,-1],"split_conditions":[-1.7610837E0,1.2622541E0,-1.9886191E0,1.089659E0,1.4185426E-1,1.110464E0,-2.1638198E0,-2.6353595E-1,8.713706E-2,-7.856154E-1,1.3665815E-1,4.987518E-1,2.590716E0,-7.0491456E-3,-2.4599127E-1,-2.2250973E-1,1.4542753E-1,2.651439E0,-3.2426346E-2,-2.3682432E0,-4.979241E-2,-6.096534E-2,-2.9217267E-1],"split_indices":[5,15,9,29,0,7,2,0,0,19,0,27,25,0,0,0,0,28,0,8,0,0,0],"split_type":[0,0,0,0,0,0,0,0,0,0,0,0,0,0,0,0,0,0,0,0,0,0,0],"sum_hessian":[1.7957793E2,8.360191E0,1.7121774E2,7.3434815E0,1.0167093E0,5.9239516E0,1.652938E2,6.0428495E0,1.300632E0,4.899244E0,1.0247079E0,3.5786464E0,1.6171515E2,1.0144136E0,3.88483E0,2.577566E0,1.0010806E0,1.6051822E2,1.1969296E0,1.5918462E2,1.3336E0,1.4681945E0,1.5771642E2],"tree_param":{"num_deleted":"0","num_feature":"30","num_nodes":"23","size_leaf_vector":"1"}},{"base_weights":[-8.791209E-1,-4.148433E-1,-9.015203E-1,-6.993956E-1,9.91189E-2,-3.8752073E-1,-9.197087E-1,-2.4825059E-1,-3.453893E-3,2.8387803E-1,-2.3363835E-1,-9.268518E-1,-8.622488E-3,-1.585583E-1,2.8814194E-1,-9.3390614E-1,-2.5931682E-2,-9.4106495E-1,-2.847749E-2,-2.844695E-1,-4.254312E-2],"categories":[],"categories_nodes":[],"categories_segments":[],"categories_sizes":[],"default_left":[0,0,0,0,0,0,0,0,0,0,0,0,0,0,0,0,0,0,0,0,0],"id":12,"left_children":[1,3,5,7,-1,9,11,-1,-1,13,-1,15,-1,-1,-1,17,-1,19,-1,-1,-1],"loss_changes":[1.0756226E0,1.9843869E0,8.788147E-1,5.460148E-1,0E0,1.8613206E0,7.8087616E-1,0E0,0E0,2.1741252E0,0E0,6.653137E-1,0E0,0E0,0E0,6.5958405E-1,0E0,5.730667E-1,0E0,0E0,0E0],"parents":[2147483647,0,0,1,1,2,2,3,3,5,5,6,6,9,9,11,11,15,15,17,17],"right_children":[2,4,6,8,-1,10,12,-1,-1,14,-1,16,-1,-1,-1,18,-1,20,-1,-1,-1],"split_conditions":[-1.7610837E0,8.154437E-1,-1.9886191E0,8.879597E-1,9.91189E-2,-6.7499775E-1,2.3904448E0,-2.4825059E-1,-3.453893E-3,1.6221397E-1,-2.3363835E-1,2.6240757E0,-8.622488E-3,-1.585583E-1,2.8814194E-1,2.590716E0,-2.5931682E-2,2.651439E0,-2.847749E-2,-2.844695E-1,-4.254312E-2],"split_indices":[5,12,9,4,0,2,10,0,0,18,0,27,0,0,0,25,0,28,0,0,0],"split_type":[0,0,0,0,0,0,0,0,0,0,0,0,0,0,0,0,0,0,0,0,0],"sum_hessian":[1.3839297E2,7.2679996E0,1.3112498E2,5.3042226E0,1.9637775E0,5.2437515E0,1.25881226E2,4.3003807E0,1.0038419E0,2.0318E0,3.2119513E0,1.2484007E2,1.0411508E0,1.0226814E0,1.0091187E0,1.2369058E2,1.1494937E0,1.22523445E2,1.1671375E0,1.2124985E2,1.2735972E0],"tree_param":{"num_deleted":"0","num_feature":"30","num_nodes":"21","size_leaf_vector":"1"}},{"base_weights":[-8.3808315E-1,-1.789108E-1,-8.6029476E-1,2.9598945E-1,-2.2378813E-1,-8.766993E-1,-2.656766E-2,-2.2694606E-2,-8.937655E-1,-1.5593553E-1,1.4798284E-1,-1.5488862E-1,1.4746642E-1,-3.2406718E-1,-9.179982E-1,9.371037E-2,-2.2491957E-1,-1.361997E-1,-9.366651E-1,-1.793745E-1,1.4633238E-1,-1.3209331E-2,-2.8397453E-1],"categories":[],"categories_nodes":[],"categories_segments":[],"categories_sizes":[],"default_left":[0,0,0,0,0,0,0,0,0,0,0,0,0,0,0,0,0,0,0,0,0,0,0],"id":13,"left_children":[1,3,5,-1,-1,7,9,11,13,-1,-1,-1,-1,15,17,-1,-1,19,21,-1,-1,-1,-1],"loss_changes":[1.4368362E0,3.911235E0,1.4106598E0,0E0,0E0,1.4778442E0,1.0395287E0,1.0254266E0,1.0933914E0,0E0,0E0,0E0,0E0,1.7665237E0,1.2747955E0,0E0,0E0,1.2743719E0,7.8759E-1,0E0,0E0,0E0,0E0],"parents":[2147483647,0,0,1,1,2,2,5,5,6,6,7,7,8,8,13,13,14,14,17,17,18,18],"right_children":[2,4,6,-1,-1,8,10,12,14,-1,-1,-1,-1,16,18,-1,-1,20,22,-1,-1,-1,-1],"split_conditions":[-1.8086019E0,-7.3829037E-1,2.0830228E0,2.9598945E-1,-2.2378813E-1,-2.073708E0,-7.850846E-2,1.0767961E-1,-1.9886191E0,-1.5593553E-1,1.4798284E-1,-1.5488862E-1,1.4746642E-1,-4.3333253E-1,-2.1638198E0,9.371037E-2,-2.2491957E-1,1.857806E-1,-2.223895E0,-1.793745E-1,1.4633238E-1,-1.3209331E-2,-2.8397453E-1],"split_indices":[13,5,3,0,0,18,16,19,9,0,0,0,0,15,2,0,0,28,29,0,0,0,0],"split_type":[0,0,0,0,0,0,0,0,0,0,0,0,0,0,0,0,0,0,0,0,0,0,0],"sum_hessian":[1.0764871E2,3.8042817E0,1.0384444E2,1.0029105E0,2.801371E0,1.01790054E2,2.0543814E0,2.0399382E0,9.9750114E1,1.0542464E0,1.0001351E0,1.0388359E0,1.0011023E0,4.656281E0,9.5093834E1,1.9728009E0,2.68348E0,2.4110699E0,9.268276E1,1.4097075E0,1.0013622E0,1.078103E0,9.160466E1],"tree_param":{"num_deleted":"0","num_feature":"30","num_nodes":"23","size_leaf_vector":"1"}},{"base_weights":[-7.895139E-1,-2.107312E-1,-8.243253E-1,-2.2322527E-1,4.2542487E-1,-9.230713E-1,-5.5903304E-1,3.054318E-1,-1.531059E-1,-9.5517296E-1,-8.641245E-2,-7.525324E-1,1.6906837E-1,-2.2227366E-2,-2.9174477E-1,-1.660299E-1,1.4174476E-1,3.508403E-1,-2.8492627E-1,4.4346005E-1,-3.993037E-1,3.1528306E-1,-1.6821966E-1,1.4663114E-1,-2.257121E-1],"categories":[],"categories_nodes":[],"categories_segments":[],"categories_sizes":[],"default_left":[0,0,0,0,0,0,0,0,0,0,0,0,0,0,0,0,0,0,0,0,0,0,0,0,0],"id":14,"left_children":[1,3,5,-1,7,9,11,-1,-1,13,15,17,19,-1,-1,-1,-1,21,-1,-1,23,-1,-1,-1,-1],"loss_changes":[1.5540657E0,2.4230797E0,1.5939636E0,0E0,2.442802E0,1.4527016E0,3.5625496E0,0E0,0E0,7.659836E-1,1.0997723E0,4.565136E0,5.007154E0,0E0,0E0,0E0,0E0,2.9373693E0,0E0,0E0,1.912424E0,0E0,0E0,0E0,0E0],"parents":[2147483647,0,0,1,1,2,2,4,4,5,5,6,6,9,9,10,10,11,11,12,12,17,17,20,20],"right_children":[2,4,6,-1,8,10,12,-1,-1,14,16,18,20,-1,-1,-1,-1,22,-1,-1,24,-1,-1,-1,-1],"split_conditions":[-1.7610837E0,2.1120605E-1,5.512031E-1,-2.2322527E-1,2.0547406E-1,1.8294822E0,7.966676E-1,3.054318E-1,-1.531059E-1,-2.1162107E0,2.3826516E-1,-1.0669545E0,9.708554E-1,-2.2227366E-2,-2.9174477E-1,-1.660299E-1,1.4174476E-1,-1.5548936E-2,-2.8492627E-1,4.4346005E-1,-6.2315357E-1,3.1528306E-1,-1.6821966E-1,1.4663114E-1,-2.257121E-1],"split_indices":[5,29,3,0,13,7,22,0,0,29,0,14,22,0,0,0,0,29,0,0,27,0,0,0,0],"split_type":[0,0,0,0,0,0,0,0,0,0,0,0,0,0,0,0,0,0,0,0,0,0,0,0,0],"sum_hessian":[8.475308E1,5.2085295E0,7.9544556E1,2.740902E0,2.4676278E0,5.6161076E1,2.338348E1,1.4569074E0,1.0107203E0,5.3949444E1,2.2116296E0,1.8447372E1,4.936108E0,1.141196E0,5.280825E1,1.2101685E0,1.0014611E0,2.6792395E0,1.5768132E1,1.0097013E0,3.9264069E0,1.4289166E0,1.250323E0,1.0076152E0,2.9187915E0],"tree_param":{"num_deleted":"0","num_feature":"30","num_nodes":"25","size_leaf_vector":"1"}},{"base_weights":[-7.3452836E-1,-7.848865E-1,-2.1782124E-1,-8.23904E-1,-1.1995691E-2,8.7394124E-1,-2.4625514E-1,5.7619337E-2,-8.535232E-1,2.9673183E-1,-2.0229019E-1,-2.390918E-2,4.3881643E-1,1.629072E-2,-8.8404804E-1,-8.998823E-1,-7.190189E-3,-9.0280734E-2,-2.7949703E-1],"categories":[],"categories_nodes":[],"categories_segments":[],"categories_sizes":[],"default_left":[0,0,0,0,0,0,0,0,0,0,0,0,0,0,0,0,0,0,0],"id":15,"left_children":[1,3,5,7,9,11,-1,-1,13,-1,-1,-1,-1,-1,15,17,-1,-1,-1],"loss_changes":[1.6218987E0,1.8718376E0,5.6570625E0,1.950985E0,3.32802E0,1.8874884E0,0E0,0E0,1.6521301E0,0E0,0E0,0E0,0E0,0E0,7.419281E-1,7.667427E-1,0E0,0E0,0E0],"parents":[2147483647,0,0,1,1,2,2,3,3,4,4,5,5,8,8,14,14,15,15],"right_children":[2,4,6,8,10,12,-1,-1,14,-1,-1,-1,-1,-1,16,18,-1,-1,-1],"split_conditions":[1.3789477E0,1.7661505E0,-5.974157E-1,-2.073708E0,-4.779118E-1,3.2533747E-1,-2.4625514E-1,5.7619337E-2,-1.8660412E0,2.9673183E-1,-2.0229019E-1,-2.390918E-2,4.3881643E-1,1.629072E-2,2.0650346E0,-1.5916128E0,-7.190189E-3,-9.0280734E-2,-2.7949703E-1],"split_indices":[28,3,2,18,4,11,0,0,26,0,0,0,0,0,15,28,0,0,0],"split_type":[0,0,0,0,0,0,0,0,0,0,0,0,0,0,0,0,0,0,0],"sum_hessian":[6.7902176E1,6.139921E1,6.502966E0,5.838575E1,3.0134633E0,2.1539912E0,4.3489747E0,1.4985785E0,5.688717E1,1.0033808E0,2.0100825E0,1.1522877E0,1.0017035E0,1.8252198E0,5.506195E1,5.4021133E1,1.0408157E0,3.248983E0,5.0772152E1],"tree_param":{"num_deleted":"0","num_feature":"30","num_nodes":"19","size_leaf_vector":"1"}},{"base_weights":[-6.709299E-1,-8.019853E-1,-3.6458814E-1,1.3937917E-1,-8.696231E-1,-7.272005E-1,1.1527024E-1,-1.5787749E-1,2.0081191E-1,2.6335543E-2,-9.183646E-1,-2.7098802E-1,1.3897607E-1,-4.9171123E-1,9.5246077E-1,-3.4515061E-3,-9.4558746E-1,-2.3934954E-1,1.4537884E-1,5.220693E-1,-1.6305932E-1,-2.9218665E-1,-8.567518E-2],"categories":[],"categories_nodes":[],"categories_segments":[],"categories_sizes":[],"default_left":[0,0,0,0,0,0,0,0,0,0,0,0,0,0,0,0,0,0,0,0,0,0,0],"id":16,"left_children":[1,3,5,7,9,11,13,-1,-1,-1,15,-1,-1,17,19,-1,21,-1,-1,-1,-1,-1,-1],"loss_changes":[1.955574E0,2.565071E0,3.3220677E0,1.5639992E0,1.7581177E0,2.6692514E0,4.9774055E0,0E0,0E0,0E0,8.357296E-1,0E0,0E0,2.1210814E0,5.742261E0,0E0,3.4498215E-1,0E0,0E0,0E0,0E0,0E0,0E0],"parents":[2147483647,0,0,1,1,2,2,3,3,4,4,5,5,6,6,10,10,13,13,14,14,16,16],"right_children":[2,4,6,8,10,12,14,-1,-1,-1,16,-1,-1,18,20,-1,22,-1,-1,-1,-1,-1,-1],"split_conditions":[5.512031E-1,-1.8465171E0,2.4608327E-1,-8.557839E-2,-2.1483357E0,1.2077191E0,3.3063763E-1,-1.5787749E-1,2.0081191E-1,2.6335543E-2,-2.0521007E0,-2.7098802E-1,1.3897607E-1,9.121578E-1,9.9015164E-1,-3.4515061E-3,1.6161857E0,-2.3934954E-1,1.4537884E-1,5.220693E-1,-1.6305932E-1,-2.9218665E-1,-8.567518E-2],"split_indices":[3,5,22,4,9,15,18,0,0,0,29,0,0,11,18,0,18,0,0,0,0,0,0],"split_type":[0,0,0,0,0,0,0,0,0,0,0,0,0,0,0,0,0,0,0,0,0,0,0],"sum_hessian":[5.4992455E1,3.738214E1,1.7610315E1,2.4347847E0,3.4947353E1,9.736974E0,7.873342E0,1.0824041E0,1.3523805E0,1.6541688E0,3.3293186E1,8.692406E0,1.0445682E0,4.8034215E0,3.0699205E0,1.011757E0,3.228143E1,3.7959962E0,1.0074252E0,1.9040239E0,1.1658968E0,3.0495024E1,1.7864053E0],"tree_param":{"num_deleted":"0","num_feature":"30","num_nodes":"23","size_leaf_vector":"1"}},{"base_weights":[-6.064098E-1,2.2639278E-2,-6.776952E-1,-5.6378543E-1,3.309793E-1,-1.9948375E-1,-7.76638E-1,-1.0596024E-2,-2.1294302E-1,-4.7845235E-1,2.8579193E-1,-8.700614E-1,-2.3765826E-1,-2.5123453E-1,1.5948017E-1,-9.006923E-1,-3.0704523E-3,2.455233E-1,-2.3833321E-1,-9.31915E-1,-7.6727115E-2,-7.4577376E-2,-2.896122E-1],"categories":[],"categories_nodes":[],"categories_segments":[],"categories_sizes":[],"default_left":[0,0,0,0,0,0,0,0,0,0,0,0,0,0,0,0,0,0,0,0,0,0,0],"id":17,"left_children":[1,3,5,7,-1,9,11,-1,-1,13,-1,15,17,-1,-1,19,-1,-1,-1,21,-1,-1,-1],"loss_changes":[2.1162128E0,4.2572393E0,1.8377228E0,3.1295562E-1,0E0,3.2087426E0,1.5328655E0,0E0,0E0,3.1869626E0,0E0,7.56382E-1,4.4602156E0,0E0,0E0,3.26643E-1,0E0,0E0,0E0,3.6323357E-1,0E0,0E0,0E0],"parents":[2147483647,0,0,1,1,2,2,3,3,5,5,6,6,9,9,11,11,12,12,15,15,19,19],"right_children":[2,4,6,8,-1,10,12,-1,-1,14,-1,16,18,-1,-1,20,-1,-1,-1,22,-1,-1,-1],"split_conditions":[-1.3593631E0,7.373047E-1,-9.292713E-1,-6.0629606E-1,3.309793E-1,1.3288044E0,9.900991E-1,-1.0596024E-2,-2.1294302E-1,8.06183E-1,2.8579193E-1,1.929631E0,-5.0799006E-1,-2.5123453E-1,1.5948017E-1,1.6161857E0,-3.0704523E-3,2.455233E-1,-2.3833321E-1,-1.9886191E0,-7.6727115E-2,-7.4577376E-2,-2.896122E-1],"split_indices":[13,27,4,16,0,28,14,0,0,7,0,4,10,0,0,18,0,0,0,9,0,0,0],"split_type":[0,0,0,0,0,0,0,0,0,0,0,0,0,0,0,0,0,0,0,0,0,0,0],"sum_hessian":[4.5850502E1,4.736477E0,4.1114025E1,3.3803396E0,1.3561369E0,7.565327E0,3.35487E1,1.000693E0,2.3796468E0,6.5613265E0,1.0040008E0,2.8069096E1,5.479602E0,4.966872E0,1.594454E0,2.7057653E1,1.0114418E0,1.7294418E0,3.75016E0,2.5383793E1,1.6738602E0,1.5783944E0,2.3805399E1],"tree_param":{"num_deleted":"0","num_feature":"30","num_nodes":"23","size_leaf_vector":"1"}},{"base_weights":[-5.3744364E-1,-3.6947012E-1,-2.7532196E-1,-5.977957E-1,5.1315185E-2,1.3358137E-1,-7.2499734E-1,-6.1794597E-1,5.2735865E-1,-8.210632E-1,1.117257E-1,-2.291013E-1,-2.6562053E-3,4.2489207E-1,-6.359538E-2,-2.7915493E-1,-2.383155E-1,-2.2156958E-1,2.9728737E-1,1.4806147E-1,-1.9798435E-1],"categories":[],"categories_nodes":[],"categories_segments":[],"categories_sizes":[],"default_left":[0,0,0,0,0,0,0,0,0,0,0,0,0,0,0,0,0,0,0,0,0],"id":18,"left_children":[1,3,-1,5,7,-1,9,11,13,15,-1,-1,-1,-1,17,-1,19,-1,-1,-1,-1],"loss_changes":[2.2058887E0,2.8464837E0,0E0,2.8540845E0,3.9037628E0,0E0,2.1385603E0,4.4841957E-1,3.8208866E0,8.177576E-1,0E0,0E0,0E0,0E0,4.449568E0,0E0,1.5357188E0,0E0,0E0,0E0,0E0],"parents":[2147483647,0,0,1,1,3,3,4,4,6,6,7,7,8,8,9,9,14,14,16,16],"right_children":[2,4,-1,6,8,-1,10,12,14,16,-1,-1,-1,-1,18,-1,20,-1,-1,-1,-1],"split_conditions":[5.260608E-1,5.512031E-1,-2.7532196E-1,-1.8465171E0,-1.8970224E-1,1.3358137E-1,1.8294822E0,6.893651E-1,-4.9002406E-1,8.8083357E-1,1.117257E-1,-2.291013E-1,-2.6562053E-3,4.2489207E-1,7.373047E-1,-2.7915493E-1,-6.748492E-1,-2.2156958E-1,2.9728737E-1,1.4806147E-1,-1.9798435E-1],"split_indices":[2,3,0,5,0,0,7,5,28,17,0,0,0,0,27,0,3,0,0,0,0],"split_type":[0,0,0,0,0,0,0,0,0,0,0,0,0,0,0,0,0,0,0,0,0],"sum_hessian":[3.884001E1,2.8308104E1,1.0531909E1,1.8077993E1,1.023011E1,1.693184E0,1.638481E1,4.128225E0,6.1018853E0,1.5297514E1,1.0872962E0,3.126439E0,1.0017858E0,1.8788952E0,4.22299E0,1.237621E1,2.9213042E0,2.7576134E0,1.4653769E0,1.0054828E0,1.9158213E0],"tree_param":{"num_deleted":"0","num_feature":"30","num_nodes":"21","size_leaf_vector":"1"}},{"base_weights":[-4.7099775E-1,-6.990777E-1,-1.7869182E-1,1.3889198E-1,-7.9080456E-1,-2.4682386E-1,1.268606E-1,-8.7515616E-1,-2.1503268E-1,9.481517E-1,-3.9606744E-1,-3.54098E-3,-2.8052264E-1,1.2942387E-1,-1.8725662E-1,1.5775748E0,-1.657193E-1,-2.4474953E-1,2.8905195E-1,-2.2204699E-2,6.7747074E-1,-1.757203E-1,3.110934E-1],"categories":[],"categories_nodes":[],"categories_segments":[],"categories_sizes":[],"default_left":[0,0,0,0,0,0,0,0,0,0,0,0,0,0,0,0,0,0,0,0,0,0,0],"id":19,"left_children":[1,3,5,-1,7,-1,9,11,13,15,17,-1,-1,-1,-1,19,-1,-1,21,-1,-1,-1,-1],"loss_changes":[2.1864061E0,2.4052448E0,3.3589826E0,0E0,6.908798E-1,0E0,5.564984E0,7.8880596E-1,1.23168E0,5.5893693E0,2.5618224E0,0E0,0E0,0E0,0E0,4.414792E0,0E0,0E0,3.1009293E0,0E0,0E0,0E0,0E0],"parents":[2147483647,0,0,1,1,2,2,4,4,6,6,7,7,8,8,9,9,10,10,15,15,18,18],"right_children":[2,4,6,-1,8,-1,10,12,14,16,18,-1,-1,-1,-1,20,-1,-1,22,-1,-1,-1,-1],"split_conditions":[2.4608327E-1,-1.8111484E0,-5.4790145E-1,1.3889198E-1,1.1044093E0,-2.4682386E-1,-6.548776E-3,-1.6008109E0,-5.4127336E-1,2.700626E-1,3.3896446E-1,-3.54098E-3,-2.8052264E-1,1.2942387E-1,-1.8725662E-1,1.0274327E-1,-1.657193E-1,-2.4474953E-1,1.5093288E-1,-2.2204699E-2,6.7747074E-1,-1.757203E-1,3.110934E-1],"split_indices":[22,18,8,0,21,0,8,2,9,26,21,0,0,0,0,18,0,0,24,0,0,0,0],"split_type":[0,0,0,0,0,0,0,0,0,0,0,0,0,0,0,0,0,0,0,0,0,0,0],"sum_hessian":[3.36686E1,1.8130312E1,1.5538285E1,1.0303175E0,1.7099995E1,4.4550724E0,1.1083213E1,1.4461403E1,2.6385918E0,3.9952557E0,7.0879574E0,1.0162112E0,1.3445191E1,1.0016457E0,1.6369462E0,2.7784643E0,1.2167913E0,4.2768164E0,2.811141E0,1.0709981E0,1.7074664E0,1.3956368E0,1.4155042E0],"tree_param":{"num_deleted":"0","num_feature":"30","num_nodes":"23","size_leaf_vector":"1"}},{"base_weights":[-4.1471866E-1,-2.4647765E-1,-2.6260504E-1,-5.231986E-1,1.1626679E-1,1.1245745E-1,-6.8821824E-1,-5.75517E-1,5.217265E-1,-8.3132446E-1,1.2787652E-1,-5.0056726E-3,-2.1798238E-1,-1.6750199E-1,8.2215095E-1,-1.7813386E-2,-2.7123412E-1,-8.549864E-2,1.2900974E0,1.2433424E-1,-1.5712309E-1,5.1635253E-1,-9.113809E-3],"categories":[],"categories_nodes":[],"categories_segments":[],"categories_sizes":[],"default_left":[0,0,0,0,0,0,0,0,0,0,0,0,0,0,0,0,0,0,0,0,0,0,0],"id":20,"left_children":[1,3,-1,5,7,-1,9,11,13,15,-1,-1,-1,-1,17,-1,-1,19,21,-1,-1,-1,-1],"loss_changes":[2.1664639E0,2.4606628E0,0E0,2.2947674E0,3.4316459E0,0E0,2.2623043E0,3.763466E-1,2.913102E0,5.610604E-1,0E0,0E0,0E0,0E0,2.7953067E0,0E0,0E0,8.9371383E-1,2.462016E0,0E0,0E0,0E0,0E0],"parents":[2147483647,0,0,1,1,3,3,4,4,6,6,7,7,8,8,9,9,14,14,17,17,18,18],"right_children":[2,4,-1,6,8,-1,10,12,14,16,-1,-1,-1,-1,18,-1,-1,20,22,-1,-1,-1,-1],"split_conditions":[5.260608E-1,2.3993969E-1,-2.6260504E-1,-1.2514606E0,-1.8970224E-1,1.1245745E-1,1.7830822E0,-4.9285865E-1,-7.288764E-1,-1.3992771E0,1.2787652E-1,-5.0056726E-3,-2.1798238E-1,-1.6750199E-1,-1.4203596E-1,-1.7813386E-2,-2.7123412E-1,-2.40409E-1,2.950631E-1,1.2433424E-1,-1.5712309E-1,5.1635253E-1,-9.113809E-3],"split_indices":[2,21,0,28,0,0,28,22,11,11,0,0,0,0,19,0,0,13,6,0,0,0,0],"split_type":[0,0,0,0,0,0,0,0,0,0,0,0,0,0,0,0,0,0,0,0,0,0,0],"sum_hessian":[2.973944E1,2.2907715E1,6.831726E0,1.2743757E1,1.0163957E1,1.7808052E0,1.0962953E1,3.6008577E0,6.563099E0,9.9405775E0,1.0223751E0,1.0026922E0,2.5981655E0,1.2414424E0,5.3216567E0,1.0130203E0,8.927557E0,2.0883293E0,3.2333272E0,1.0008595E0,1.0874699E0,2.208801E0,1.0245262E0],"tree_param":{"num_deleted":"0","num_feature":"30","num_nodes":"23","size_leaf_vector":"1"}},{"base_weights":[-3.6235636E-1,-4.7211853E-1,3.2473525E-1,-7.831856E-1,-1.3749883E-1,-1.7116734E-1,8.870211E-1,-2.7211127E-1,-1.028437E-1,1.4010254E-1,-2.287899E-1,4.4266853E-1,-2.8469374E-2,-1.5352945E-1,1.0948249E-1,-2.149256E-1,3.55644E-1,3.9207846E-1,-2.3563658E-1,2.6737943E-1,-1.6557996E-1],"categories":[],"categories_nodes":[],"categories_segments":[],"categories_sizes":[],"default_left":[0,0,0,0,0,0,0,0,0,0,0,0,0,0,0,0,0,0,0,0,0],"id":21,"left_children":[1,3,5,7,9,-1,11,-1,13,15,-1,-1,-1,-1,-1,17,-1,19,-1,-1,-1],"loss_changes":[2.2457016E0,2.4248304E0,2.7282073E0,9.512191E-1,2.3514473E0,0E0,1.9330952E0,0E0,7.676945E-1,3.8925722E0,0E0,0E0,0E0,0E0,0E0,3.1350262E0,0E0,2.6701002E0,0E0,0E0,0E0],"parents":[2147483647,0,0,1,1,2,2,3,3,4,4,6,6,8,8,9,9,15,15,17,17],"right_children":[2,4,6,8,10,-1,12,-1,14,16,-1,-1,-1,-1,-1,18,-1,20,-1,-1,-1],"split_conditions":[1.2276131E0,2.4608327E-1,-1.1011528E-1,1.018763E0,4.7436088E-1,-1.7116734E-1,5.2681696E-1,-2.7211127E-1,7.861105E-2,2.063107E-1,-2.287899E-1,4.4266853E-1,-2.8469374E-2,-1.5352945E-1,1.0948249E-1,-1.6086015E-1,3.55644E-1,-3.0673128E-2,-2.3563658E-1,2.6737943E-1,-1.6557996E-1],"split_indices":[15,22,6,29,16,0,6,0,5,16,0,0,0,0,0,29,0,5,0,0,0],"split_type":[0,0,0,0,0,0,0,0,0,0,0,0,0,0,0,0,0,0,0,0,0],"sum_hessian":[2.674438E1,2.3330269E1,3.4141116E0,1.139593E1,1.193434E1,1.3113766E0,2.102735E0,9.358979E0,2.0369506E0,8.801686E0,3.1326532E0,1.0003904E0,1.1023446E0,1.0366937E0,1.0002569E0,7.1633077E0,1.6383786E0,3.6222575E0,3.54105E0,2.4059072E0,1.2163503E0],"tree_param":{"num_deleted":"0","num_feature":"30","num_nodes":"21","size_leaf_vector":"1"}},{"base_weights":[-3.1390902E-1,-1.6002482E-1,-2.4700548E-1,-6.624842E-1,3.6762305E-2,-2.3920052E-1,-1.8312136E-3,2.6434264E-1,-5.7794297E-1,-9.894119E-2,1.2246782E0,-9.509626E-3,-2.1694723E-1,5.6878394E-1,-4.792132E-1,8.015556E-2,5.087744E-1,-1.9057414E-2,3.6886263E-1,1.0440326E-1,-2.0703867E-1],"categories":[],"categories_nodes":[],"categories_segments":[],"categories_sizes":[],"default_left":[0,0,0,0,0,0,0,0,0,0,0,0,0,0,0,0,0,0,0,0,0],"id":22,"left_children":[1,3,-1,5,7,-1,-1,9,11,13,15,-1,-1,17,19,-1,-1,-1,-1,-1,-1],"loss_changes":[1.8412454E0,2.0582752E0,0E0,5.1218987E-1,2.3531156E0,0E0,0E0,4.3652077E0,3.390726E-1,2.7486098E0,1.0870986E0,0E0,0E0,1.7474838E0,1.4188809E0,0E0,0E0,0E0,0E0,0E0,0E0],"parents":[2147483647,0,0,1,1,3,3,4,4,7,7,8,8,9,9,10,10,13,13,14,14],"right_children":[2,4,-1,6,8,-1,-1,10,12,14,16,-1,-1,18,20,-1,-1,-1,-1,-1,-1],"split_conditions":[5.260608E-1,-5.3139997E-1,-2.4700548E-1,8.073588E-1,4.8656934E-1,-2.3920052E-1,-1.8312136E-3,2.063107E-1,-7.79147E-1,-7.169631E-1,5.770352E-1,-9.509626E-3,-2.1694723E-1,1.0788528E0,-1.3870275E0,8.015556E-2,5.087744E-1,-1.9057414E-2,3.6886263E-1,1.0440326E-1,-2.0703867E-1],"split_indices":[2,12,0,10,16,0,0,16,10,4,23,0,0,0,13,0,0,0,0,0,0],"split_type":[0,0,0,0,0,0,0,0,0,0,0,0,0,0,0,0,0,0,0,0,0],"sum_hessian":[2.41674E1,1.9570099E1,4.5973024E0,4.8415637E0,1.4728535E1,3.8382616E0,1.0033022E0,1.1164943E1,3.563592E0,8.751372E0,2.4135706E0,1.0042514E0,2.5593405E0,2.9956093E0,5.755763E0,1.3129036E0,1.100667E0,1.9926322E0,1.0029771E0,1.0373223E0,4.7184405E0],"tree_param":{"num_deleted":"0","num_feature":"30","num_nodes":"21","size_leaf_vector":"1"}},{"base_weights":[-2.605493E-1,-3.4549722E-1,1.7498495E-1,-2.4884477E-1,-1.5503262E-1,2.6209652E-1,-4.1937554E-1,9.207784E-1,-4.0859818E-1,2.3823446E-1,-7.608882E-1,-3.1881195E-2,4.070864E-1,7.074628E-2,-2.063836E-1,7.481585E-1,-1.681015E-1,-4.1764583E-2,-2.519993E-1,2.7509475E-1,6.715414E-2],"categories":[],"categories_nodes":[],"categories_segments":[],"categories_sizes":[],"default_left":[0,0,0,0,0,0,0,0,0,0,0,0,0,0,0,0,0,0,0,0,0],"id":23,"left_children":[1,3,-1,-1,5,7,9,11,13,15,17,-1,-1,-1,-1,19,-1,-1,-1,-1,-1],"loss_changes":[1.827568E0,1.8291185E0,0E0,0E0,1.9259708E0,3.4704437E0,2.5317063E0,1.8648908E0,9.116456E-1,2.1860738E0,2.33562E-1,0E0,0E0,0E0,0E0,6.703472E-2,0E0,0E0,0E0,0E0,0E0],"parents":[2147483647,0,0,1,1,4,4,5,5,6,6,7,7,8,8,9,9,10,10,15,15],"right_children":[2,4,-1,-1,6,8,10,12,14,16,18,-1,-1,-1,-1,20,-1,-1,-1,-1,-1],"split_conditions":[1.6537353E0,-5.3139997E-1,1.7498495E-1,-2.4884477E-1,-5.974157E-1,-2.4987458E-1,-6.5903884E-1,3.4911096E-2,-9.473182E-1,-2.1446654E-1,-1.1673646E0,-3.1881195E-2,4.070864E-1,7.074628E-2,-2.063836E-1,7.558937E-2,-1.681015E-1,-4.1764583E-2,-2.519993E-1,2.7509475E-1,6.715414E-2],"split_indices":[15,12,0,0,2,7,28,27,9,5,11,0,0,0,0,27,0,0,0,0,0],"split_type":[0,0,0,0,0,0,0,0,0,0,0,0,0,0,0,0,0,0,0,0,0],"sum_hessian":[2.1684208E1,2.023748E1,1.4467291E0,4.767597E0,1.5469882E1,6.004061E0,9.46582E0,2.8410373E0,3.163024E0,3.3389053E0,6.1269155E0,1.072356E0,1.7686813E0,1.0036175E0,2.1594064E0,2.076255E0,1.2626503E0,1.0031948E0,5.1237206E0,1.0040365E0,1.0722184E0],"tree_param":{"num_deleted":"0","num_feature":"30","num_nodes":"21","size_leaf_vector":"1"}},{"base_weights":[-2.1946274E-1,-6.7061275E-1,-4.1923515E-2,-2.3891975E-1,-1.0016966E-2,4.3456265E-1,-4.290482E-1,-1.868027E-1,8.2184386E-1,-2.4304485E-1,3.3783384E-2,-7.353622E-2,1.2170594E0,2.4505201E-1,-5.292018E-1,6.5534934E-2,1.5305729E0,-1.8678293E-1,-4.2629495E-2,1.4258806E-1,5.598049E-1],"categories":[],"categories_nodes":[],"categories_segments":[],"categories_sizes":[],"default_left":[0,0,0,0,0,0,0,0,0,0,0,0,0,0,0,0,0,0,0,0,0],"id":24,"left_children":[1,3,5,-1,-1,7,9,-1,11,-1,13,-1,15,-1,17,-1,19,-1,-1,-1,-1],"loss_changes":[1.6479186E0,4.4170547E-1,3.1530404E0,0E0,0E0,3.6669722E0,1.6812625E0,0E0,2.858388E0,0E0,2.7221406E0,0E0,1.1051021E0,0E0,4.2732E-2,0E0,2.9282808E-1,0E0,0E0,0E0,0E0],"parents":[2147483647,0,0,1,1,2,2,5,5,6,6,8,8,10,10,12,12,14,14,16,16],"right_children":[2,4,6,-1,-1,8,10,-1,12,-1,14,-1,16,-1,18,-1,20,-1,-1,-1,-1],"split_conditions":[-5.4790145E-1,1.0461112E0,5.5706523E-2,-2.3891975E-1,-1.0016966E-2,-1.6385825E-1,3.280329E-1,-1.868027E-1,1.0274327E-1,-2.4304485E-1,6.092264E-1,-7.353622E-2,1.9223789E-2,2.4505201E-1,3.5785282E-1,6.5534934E-2,1.34087E-1,-1.8678293E-1,-4.2629495E-2,1.4258806E-1,5.598049E-1],"split_indices":[8,0,8,0,0,12,21,0,18,0,21,0,17,0,10,0,11,0,0,0,0],"split_type":[0,0,0,0,0,0,0,0,0,0,0,0,0,0,0,0,0,0,0,0,0],"sum_hessian":[1.9925089E1,4.8424735E0,1.5082615E1,3.8355482E0,1.0069255E0,6.706046E0,8.376568E0,1.6349597E0,5.0710864E0,4.1823497E0,4.1942186E0,1.4733251E0,3.5977614E0,1.5656483E0,2.6285703E0,1.2650567E0,2.3327048E0,1.6274794E0,1.0010909E0,1.145611E0,1.1870936E0],"tree_param":{"num_deleted":"0","num_feature":"30","num_nodes":"21","size_leaf_vector":"1"}},{"base_weights":[-1.8586493E-1,-4.181292E-1,1.2924303E-1,1.0831018E-1,-7.59531E-1,-4.6283683E-1,4.162362E-1,-1.676648E-1,4.5166937E-1,-2.503777E-1,-4.6816807E-2,-1.7500071E-1,-2.6348662E-2,7.072494E-1,-1.5890746E-1,-5.477925E-2,2.4440189E-1,-2.0336676E-2,1.0226347E0,7.9131685E-2,3.6743686E-1],"categories":[],"categories_nodes":[],"categories_segments":[],"categories_sizes":[],"default_left":[0,0,0,0,0,0,0,0,0,0,0,0,0,0,0,0,0,0,0,0,0],"id":25,"left_children":[1,3,5,7,9,11,13,-1,15,-1,-1,-1,-1,17,-1,-1,-1,-1,19,-1,-1],"loss_changes":[1.4605718E0,2.1130767E0,1.7081189E0,1.4712387E0,1.8589449E-1,1.01735175E-1,2.1731238E0,0E0,1.0848353E0,0E0,0E0,0E0,0E0,1.3952723E0,0E0,0E0,0E0,0E0,2.779479E-1,0E0,0E0],"parents":[2147483647,0,0,1,1,2,2,3,3,4,4,5,5,6,6,8,8,13,13,18,18],"right_children":[2,4,6,8,10,12,14,-1,16,-1,-1,-1,-1,18,-1,-1,-1,-1,20,-1,-1],"split_conditions":[5.512031E-1,-6.346487E-1,-2.8873074E-1,-1.8176682E-1,1.2188205E0,3.794154E-1,4.86543E-1,-1.676648E-1,3.353804E-2,-2.503777E-1,-4.6816807E-2,-1.7500071E-1,-2.6348662E-2,-8.9897275E-2,-1.5890746E-1,-5.477925E-2,2.4440189E-1,-2.0336676E-2,-4.4154957E-2,7.9131685E-2,3.6743686E-1],"split_indices":[3,2,25,11,29,20,13,0,13,0,0,0,0,6,0,0,0,0,8,0,0],"split_type":[0,0,0,0,0,0,0,0,0,0,0,0,0,0,0,0,0,0,0,0,0],"sum_hessian":[1.8217976E1,1.0299404E1,7.9185715E0,4.3202915E0,5.9791126E0,2.3851628E0,5.5334086E0,1.2546492E0,3.0656424E0,4.977077E0,1.0020353E0,1.3846979E0,1.0004648E0,4.424531E0,1.108878E0,1.296785E0,1.7688575E0,1.5067799E0,2.9177508E0,1.0985905E0,1.8191603E0],"tree_param":{"num_deleted":"0","num_feature":"30","num_nodes":"21","size_leaf_vector":"1"}},{"base_weights":[-1.6600536E-1,-2.945534E-1,3.4303924E-1,-6.5645176E-1,1.9069102E-2,-7.326995E-2,2.2051883E-1,-2.5050232E-1,5.8519237E-2,-2.0295571E-1,3.2471764E-1,6.161776E-1,-1.6744989E-1,9.270119E-1,-7.117312E-2,3.0220803E-2,3.733844E-1],"categories":[],"categories_nodes":[],"categories_segments":[],"categories_sizes":[],"default_left":[0,0,0,0,0,0,0,0,0,0,0,0,0,0,0,0,0],"id":26,"left_children":[1,3,5,7,9,-1,-1,-1,-1,-1,11,13,-1,15,-1,-1,-1],"loss_changes":[1.2858155E0,1.7142478E0,1.1262877E0,1.2255299E0,2.134011E0,0E0,0E0,0E0,0E0,0E0,2.1274858E0,1.7283204E0,0E0,1.0219193E0,0E0,0E0,0E0],"parents":[2147483647,0,0,1,1,2,2,3,3,4,4,10,10,11,11,13,13],"right_children":[2,4,6,8,10,-1,-1,-1,-1,-1,12,14,-1,16,-1,-1,-1],"split_conditions":[1.2276131E0,1.0274327E-1,1.3140854E-1,1.3666519E0,-1.6385825E-1,-7.326995E-2,2.2051883E-1,-2.5050232E-1,5.8519237E-2,-2.0295571E-1,4.5669284E-1,-6.548776E-3,-1.6744989E-1,-2.9931998E-1,-7.117312E-2,3.0220803E-2,3.733844E-1],"split_indices":[15,18,7,11,12,0,0,0,0,0,19,8,0,8,0,0,0],"split_type":[0,0,0,0,0,0,0,0,0,0,0,0,0,0,0,0,0],"sum_hessian":[1.7105621E1,1.3993285E1,3.1123369E0,5.9891267E0,8.004159E0,1.3968194E0,1.7155175E0,4.966978E0,1.0221483E0,2.0730257E0,5.9311333E0,4.686198E0,1.2449348E0,3.3718634E0,1.3143348E0,1.3019316E0,2.069932E0],"tree_param":{"num_deleted":"0","num_feature":"30","num_nodes":"17","size_leaf_vector":"1"}},{"base_weights":[-1.4607984E-1,-2.0701872E-1,-1.7118474E-2,1.1636215E-1,-1.909245E-1,2.399184E-1,-1.6883686E-1,-1.5491347E-1,3.651278E-1,6.381549E-1,-3.292389E-2,-8.147735E-2,2.6961628E-1,-1.4205961E-1,1.2985031E-1],"categories":[],"categories_nodes":[],"categories_segments":[],"categories_sizes":[],"default_left":[0,0,0,0,0,0,0,0,0,0,0,0,0,0,0],"id":27,"left_children":[1,-1,3,5,-1,7,-1,-1,9,11,13,-1,-1,-1,-1],"loss_changes":[1.1659429E0,0E0,1.2806681E0,1.2136284E0,0E0,1.2847753E0,0E0,0E0,1.1640804E0,1.7345889E0,1.2782679E0,0E0,0E0,0E0,0E0],"parents":[2147483647,0,0,2,2,3,3,5,5,8,8,9,9,10,10],"right_children":[2,-1,4,6,-1,8,-1,-1,10,12,14,-1,-1,-1,-1],"split_conditions":[-9.1376436E-1,-2.0701872E-1,5.260608E-1,9.216897E-1,-1.909245E-1,-9.8504555E-1,-1.6883686E-1,-1.5491347E-1,2.9390752E-1,-4.933276E-1,6.7951787E-1,-8.147735E-2,2.6961628E-1,-1.4205961E-1,1.2985031E-1],"split_indices":[24,0,2,13,0,25,0,0,24,19,27,0,0,0,0],"split_type":[0,0,0,0,0,0,0,0,0,0,0,0,0,0,0],"sum_hessian":[1.5788451E1,2.1918607E0,1.3596591E1,1.1853781E1,1.7428095E0,1.05763855E1,1.2773955E0,1.0585228E0,9.517862E0,5.2877517E0,4.230111E0,1.1678791E0,4.1198726E0,2.1651678E0,2.0649433E0],"tree_param":{"num_deleted":"0","num_feature":"30","num_nodes":"15","size_leaf_vector":"1"}},{"base_weights":[-1.5327452E-1,-3.701122E-1,1.0694984E-1,8.2281224E-2,-5.834998E-1,-1.6104716E-1,2.9030168E-1,-2.4125917E-1,-3.2786157E-2,5.074521E-1,-9.1148056E-2,-1.5098615E-1,1.3136111E-1,-1.2636846E-2,7.1783257E-1,3.453126E-2,2.806835E-1],"categories":[],"categories_nodes":[],"categories_segments":[],"categories_sizes":[],"default_left":[0,0,0,0,0,0,0,0,0,0,0,0,0,0,0,0,0],"id":28,"left_children":[1,3,5,-1,7,-1,9,-1,11,13,-1,-1,-1,-1,15,-1,-1],"loss_changes":[9.5158875E-1,1.4031372E0,1.1145635E0,0E0,8.3794236E-1,0E0,1.0535116E0,0E0,9.017589E-1,6.637689E-1,0E0,0E0,0E0,0E0,4.197135E-1,0E0,0E0],"parents":[2147483647,0,0,1,1,2,2,4,4,6,6,8,8,9,9,14,14],"right_children":[2,4,6,-1,8,-1,10,-1,12,14,-1,-1,-1,-1,16,-1,-1],"split_conditions":[4.652652E-1,-1.0669545E0,-4.4563013E-1,8.2281224E-2,5.4697764E-1,-1.6104716E-1,4.5669284E-1,-2.4125917E-1,1.2008532E-1,-8.171212E-2,-9.1148056E-2,-1.5098615E-1,1.3136111E-1,-1.2636846E-2,3.2695964E-1,3.453126E-2,2.806835E-1],"split_indices":[22,14,18,0,17,0,19,0,13,1,0,0,0,0,14,0,0],"split_type":[0,0,0,0,0,0,0,0,0,0,0,0,0,0,0,0,0],"sum_hessian":[1.5162726E1,8.040511E0,7.122215E0,1.9292598E0,6.111252E0,1.1514564E0,5.9707584E0,4.0342517E0,2.0770001E0,4.479439E0,1.4913195E0,1.0040009E0,1.0729992E0,1.4614598E0,3.017979E0,1.2067357E0,1.8112432E0],"tree_param":{"num_deleted":"0","num_feature":"30","num_nodes":"17","size_leaf_vector":"1"}},{"base_weights":[-1.3340156E-1,5.888874E-2,-4.5424783E-1,-1.3215686E-1,2.1168964E-1,-2.166914E-1,5.0196722E-2,-2.0258664E-1,1.3100652E-1,-1.6062161E-1,3.5963878E-1,-4.9214028E-2,6.726071E-1,2.4716568E-1,6.2014967E-2],"categories":[],"categories_nodes":[],"categories_segments":[],"categories_sizes":[],"default_left":[0,0,0,0,0,0,0,0,0,0,0,0,0,0,0],"id":29,"left_children":[1,3,5,7,-1,-1,-1,-1,9,-1,11,-1,13,-1,-1],"loss_changes":[9.6349704E-1,1.3756399E0,1.0879816E0,1.3540435E0,0E0,0E0,0E0,0E0,1.2289193E0,0E0,1.0384271E0,0E0,9.3314886E-2,0E0,0E0],"parents":[2147483647,0,0,1,1,2,2,3,3,8,8,10,10,12,12],"right_children":[2,4,6,8,-1,-1,-1,-1,10,-1,12,-1,14,-1,-1],"split_conditions":[2.0547406E-1,3.353804E-2,7.101074E-1,-3.702159E-1,2.1168964E-1,-2.166914E-1,5.0196722E-2,-2.0258664E-1,-5.032191E-1,-1.6062161E-1,6.1322534E-1,-4.9214028E-2,9.7254354E-1,2.4716568E-1,6.2014967E-2],"split_indices":[13,13,1,23,0,0,0,0,29,0,3,0,3,0,0],"split_type":[0,0,0,0,0,0,0,0,0,0,0,0,0,0,0],"sum_hessian":[1.4183361E1,9.37886E0,4.8045015E0,7.854367E0,1.5244931E0,3.2436073E0,1.5608943E0,2.05242E0,5.801947E0,1.139317E0,4.6626296E0,1.9221536E0,2.7404761E0,1.4886799E0,1.2517964E0],"tree_param":{"num_deleted":"0","num_feature":"30","num_nodes":"15","size_leaf_vector":"1"}},{"base_weights":[-1.1378414E-1,-2.8246796E-1,2.0677169E-1,-4.981747E-1,2.5781658E-1,-1.5573859E-1,4.9818754E-1,-3.5370145E-2,-2.3424801E-1,-5.3396102E-2,1.56352E-1,-4.614159E-2,2.555435E-1,-1.4484127E-1,1.8057755E-1],"categories":[],"categories_nodes":[],"categories_segments":[],"categories_sizes":[],"default_left":[0,0,0,0,0,0,0,0,0,0,0,0,0,0,0],"id":30,"left_children":[1,3,5,7,9,-1,11,13,-1,-1,-1,-1,-1,-1,-1],"loss_changes":[8.31831E-1,1.2699105E0,1.4239942E0,9.326544E-1,4.8913926E-1,0E0,1.1549823E0,1.3829671E0,0E0,0E0,0E0,0E0,0E0,0E0,0E0],"parents":[2147483647,0,0,1,1,2,2,3,3,4,4,6,6,7,7],"right_children":[2,4,6,8,10,-1,12,14,-1,-1,-1,-1,-1,-1,-1],"split_conditions":[6.639734E-1,1.0131102E0,-3.3580235E-1,-4.411151E-1,4.0094712E-1,-1.5573859E-1,1.34087E-1,-6.3413423E-1,-2.3424801E-1,-5.3396102E-2,1.56352E-1,-4.614159E-2,2.555435E-1,-1.4484127E-1,1.8057755E-1],"split_indices":[12,28,7,13,19,0,11,13,0,0,0,0,0,0,0],"split_type":[0,0,0,0,0,0,0,0,0,0,0,0,0,0,0],"sum_hessian":[1.3303451E1,8.7944355E0,4.509015E0,6.340824E0,2.4536116E0,1.0677956E0,3.4412196E0,2.8308406E0,3.5099833E0,1.0463191E0,1.4072926E0,1.4088038E0,2.0324159E0,1.8055863E0,1.0252544E0],"tree_param":{"num_deleted":"0","num_feature":"30","num_nodes":"15","size_leaf_vector":"1"}},{"base_weights":[-9.915356E-2,-4.103451E-1,7.1658924E-2,-2.167142E-1,7.322586E-2,4.2901602E-1,-2.2145389E-1,-6.2077854E-2,7.202002E-1,1.16637416E-1,-1.925077E-1,4.0291198E-2,2.8076756E-1,-1.2838021E-1,4.54691E-1,1.7940669E-1,2.5072157E-2],"categories":[],"categories_nodes":[],"categories_segments":[],"categories_sizes":[],"default_left":[0,0,0,0,0,0,0,0,0,0,0,0,0,0,0,0,0],"id":31,"left_children":[1,3,5,-1,-1,7,9,-1,11,13,-1,-1,-1,-1,15,-1,-1],"loss_changes":[7.4297804E-1,1.1781495E0,1.0920125E0,0E0,0E0,1.0063148E0,9.115129E-1,0E0,3.0381513E-1,9.511171E-1,0E0,0E0,0E0,0E0,1.10683024E-1,0E0,0E0],"parents":[2147483647,0,0,1,1,2,2,5,5,6,6,8,8,9,9,14,14],"right_children":[2,4,6,-1,-1,8,10,-1,12,14,-1,-1,-1,-1,16,-1,-1],"split_conditions":[-1.8970224E-1,1.0285987E0,-4.9002406E-1,-2.167142E-1,7.322586E-2,1.7828155E-1,-4.2277092E-1,-6.2077854E-2,7.3014015E-1,3.275756E-1,-1.925077E-1,4.0291198E-2,2.8076756E-1,-1.2838021E-1,-8.8151395E-1,1.7940669E-1,2.5072157E-2],"split_indices":[0,28,28,0,0,18,2,0,12,22,0,0,0,0,9,0,0],"split_type":[0,0,0,0,0,0,0,0,0,0,0,0,0,0,0,0,0],"sum_hessian":[1.2424283E1,3.9059632E0,8.518319E0,2.5745687E0,1.3313944E0,3.629569E0,4.8887506E0,1.2308259E0,2.3987432E0,3.1095202E0,1.7792302E0,1.082083E0,1.3166602E0,1.089142E0,2.020378E0,1.0164125E0,1.0039656E0],"tree_param":{"num_deleted":"0","num_feature":"30","num_nodes":"17","size_leaf_vector":"1"}},{"base_weights":[-8.2488656E-2,-3.909274E-1,8.6095594E-2,9.0327986E-2,-2.13634E-1,5.1508516E-1,-2.6865295E-1,2.3648827E-1,2.1313703E-2,-1.7742625E-1,1.3686351E-1,1.5836333E-1,-8.054967E-2],"categories":[],"categories_nodes":[],"categories_segments":[],"categories_sizes":[],"default_left":[0,0,0,0,0,0,0,0,0,0,0,0,0],"id":32,"left_children":[1,3,5,-1,-1,7,9,-1,-1,-1,11,-1,-1],"loss_changes":[6.8569463E-1,1.239537E0,1.497006E0,0E0,0E0,4.7580957E-1,8.06564E-1,0E0,0E0,0E0,6.598861E-1,0E0,0E0],"parents":[2147483647,0,0,1,1,2,2,5,5,6,6,10,10],"right_children":[2,4,6,-1,-1,8,10,-1,-1,-1,12,-1,-1],"split_conditions":[-2.9931998E-1,-1.0250082E0,5.5706523E-2,9.0327986E-2,-2.13634E-1,-3.8375944E-1,2.4847814E-1,2.3648827E-1,2.1313703E-2,-1.7742625E-1,4.6321055E-1,1.5836333E-1,-8.054967E-2],"split_indices":[8,26,8,0,0,21,26,0,0,0,26,0,0],"split_type":[0,0,0,0,0,0,0,0,0,0,0,0,0],"sum_hessian":[1.1539686E1,3.612124E0,7.927562E0,1.164872E0,2.4472518E0,3.3837254E0,4.5438366E0,1.6148558E0,1.7688695E0,2.274793E0,2.269044E0,1.0011215E0,1.2679223E0],"tree_param":{"num_deleted":"0","num_feature":"30","num_nodes":"13","size_leaf_vector":"1"}},{"base_weights":[-6.638587E-2,-3.6684403E-1,8.775287E-2,-1.9732775E-1,4.9205646E-2,-1.2525398E-1,2.592467E-1,-8.16771E-2,4.2796025E-1,6.3934296E-1,-5.2971832E-2,2.6356432E-1,3.448168E-2],"categories":[],"categories_nodes":[],"categories_segments":[],"categories_sizes":[],"default_left":[0,0,0,0,0,0,0,0,0,0,0,0,0],"id":33,"left_children":[1,3,5,-1,-1,-1,7,-1,9,11,-1,-1,-1],"loss_changes":[5.7867724E-1,7.555943E-1,8.539484E-1,0E0,0E0,0E0,7.4799585E-1,0E0,8.456491E-1,4.5911205E-1,0E0,0E0,0E0],"parents":[2147483647,0,0,1,1,2,2,6,6,8,8,9,9],"right_children":[2,4,6,-1,-1,-1,8,-1,10,12,-1,-1,-1],"split_conditions":[-1.8970224E-1,1.0285987E0,-4.916484E-1,-1.9732775E-1,4.9205646E-2,-1.2525398E-1,-4.5170906E-1,-8.16771E-2,2.950631E-1,1.299915E-1,-5.2971832E-2,2.6356432E-1,3.448168E-2],"split_indices":[0,28,25,0,0,0,7,0,6,25,0,0,0],"split_type":[0,0,0,0,0,0,0,0,0,0,0,0,0],"sum_hessian":[1.0800023E1,3.1940312E0,7.605992E0,1.9089053E0,1.2851261E0,1.5638651E0,6.0421267E0,1.3079444E0,4.7341824E0,3.4650145E0,1.2691679E0,1.9158026E0,1.5492119E0],"tree_param":{"num_deleted":"0","num_feature":"30","num_nodes":"13","size_leaf_vector":"1"}},{"base_weights":[-6.308271E-2,-1.5338056E-1,3.2466948E-2,-2.4911915E-1,1.9509165E-1,7.676227E-2,-1.4666978E-1,5.563585E-1,-8.788273E-2,2.1055609E-2,2.3992886E-1,-1.6979544E-1,2.4848542E-1,-5.492046E-2,1.518473E-1],"categories":[],"categories_nodes":[],"categories_segments":[],"categories_sizes":[],"default_left":[0,0,0,0,0,0,0,0,0,0,0,0,0,0,0],"id":34,"left_children":[1,-1,3,5,7,-1,-1,9,11,-1,-1,-1,13,-1,-1],"loss_changes":[4.9917653E-1,0E0,5.1701087E-1,6.3172156E-1,7.690916E-1,0E0,0E0,3.261906E-1,9.1483784E-1,0E0,0E0,0E0,4.8417753E-1,0E0,0E0],"parents":[2147483647,0,0,2,2,3,3,4,4,7,7,8,8,12,12],"right_children":[2,-1,4,6,8,-1,-1,10,12,-1,-1,-1,14,-1,-1],"split_conditions":[-9.1376436E-1,-1.5338056E-1,-1.7238264E-1,-1.1084975E0,1.7262827E-1,7.676227E-2,-1.4666978E-1,4.75247E-1,4.1562796E-2,2.1055609E-2,2.3992886E-1,-1.6979544E-1,4.0094712E-1,-5.492046E-2,1.518473E-1],"split_indices":[24,0,25,5,25,0,0,4,6,0,0,0,19,0,0],"split_type":[0,0,0,0,0,0,0,0,0,0,0,0,0,0,0],"sum_hessian":[1.026885E1,1.0399659E0,9.228885E0,3.1839616E0,6.044923E0,1.0034682E0,2.1804934E0,2.230801E0,3.8141217E0,1.1740717E0,1.0567294E0,1.2932731E0,2.5208488E0,1.0506812E0,1.4701674E0],"tree_param":{"num_deleted":"0","num_feature":"30","num_nodes":"15","size_leaf_vector":"1"}},{"base_weights":[-5.4818224E-2,-1.3180669E-1,5.231659E-2,-3.170446E-1,2.0337981E-1,1.6677583E-2,-1.5684824E-1,-9.3264244E-2,3.4462446E-1,2.4836583E-1,8.11688E-2,-1.12595685E-1,3.1048626E-1,-2.33847E-2,1.5377797E-1],"categories":[],"categories_nodes":[],"categories_segments":[],"categories_sizes":[],"default_left":[0,0,0,0,0,0,0,0,0,0,0,0,0,0,0],"id":35,"left_children":[1,-1,3,5,7,-1,-1,-1,9,-1,11,-1,13,-1,-1],"loss_changes":[4.6530113E-1,0E0,5.828687E-1,2.6582748E-1,6.303418E-1,0E0,0E0,0E0,7.126545E-1,0E0,6.475595E-1,0E0,3.4800115E-1,0E0,0E0],"parents":[2147483647,0,0,2,2,3,3,4,4,8,8,10,10,12,12],"right_children":[2,-1,4,6,8,-1,-1,-1,10,-1,12,-1,14,-1,-1],"split_conditions":[-6.7863435E-1,-1.3180669E-1,-1.8970224E-1,-1.0806962E-1,-6.4836806E-1,1.6677583E-2,-1.5684824E-1,-9.3264244E-2,-4.6515384E-1,2.4836583E-1,1.0274327E-1,-1.12595685E-1,2.697632E-1,-2.33847E-2,1.5377797E-1],"split_indices":[21,0,0,18,20,0,0,0,20,0,18,0,15,0,0],"split_type":[0,0,0,0,0,0,0,0,0,0,0,0,0,0,0],"sum_hessian":[9.736507E0,1.4458783E0,8.290629E0,2.0875804E0,6.203049E0,1.0023508E0,1.0852295E0,1.077812E0,5.125237E0,1.052396E0,4.072841E0,1.1489736E0,2.9238675E0,1.2109073E0,1.7129602E0],"tree_param":{"num_deleted":"0","num_feature":"30","num_nodes":"15","size_leaf_vector":"1"}},{"base_weights":[-5.312188E-2,-3.2891572E-1,8.601291E-2,6.2103584E-2,-1.8616681E-1,3.2337734E-1,-3.3808175E-1,5.229611E-1,-6.464363E-2,2.0907098E-2,-1.6589966E-1,-2.9503624E-3,2.1316639E-1],"categories":[],"categories_nodes":[],"categories_segments":[],"categories_sizes":[],"default_left":[0,0,0,0,0,0,0,0,0,0,0,0,0],"id":36,"left_children":[1,3,5,-1,-1,7,9,11,-1,-1,-1,-1,-1],"loss_changes":[4.243009E-1,7.0174354E-1,8.796443E-1,0E0,0E0,6.9530886E-1,3.2203642E-1,4.3126976E-1,0E0,0E0,0E0,0E0,0E0],"parents":[2147483647,0,0,1,1,2,2,5,5,6,6,7,7],"right_children":[2,4,6,-1,-1,8,10,12,-1,-1,-1,-1,-1],"split_conditions":[-2.9931998E-1,-1.0250082E0,-3.1713933E-1,6.2103584E-2,-1.8616681E-1,2.6019183E-1,-6.0142565E-1,-4.5170906E-1,-6.464363E-2,2.0907098E-2,-1.6589966E-1,-2.9503624E-3,2.1316639E-1],"split_indices":[8,26,2,0,0,7,4,7,0,0,0,0,0],"split_type":[0,0,0,0,0,0,0,0,0,0,0,0,0],"sum_hessian":[9.320145E0,2.6678693E0,6.652275E0,1.0424359E0,1.6254336E0,4.417373E0,2.2349021E0,3.2449813E0,1.1723919E0,1.0045868E0,1.2303152E0,1.0917661E0,2.1532152E0],"tree_param":{"num_deleted":"0","num_feature":"30","num_nodes":"13","size_leaf_vector":"1"}},{"base_weights":[-5.6261286E-2,-2.750873E-1,8.388022E-2,-1.6171768E-1,7.445251E-2,3.8237152E-1,-1.9684911E-1,-1.1559944E-2,1.7995152E-1,7.196119E-2,-4.2889306E-1,-3.6119934E-2,-1.5590054E-1],"categories":[],"categories_nodes":[],"categories_segments":[],"categories_sizes":[],"default_left":[0,0,0,0,0,0,0,0,0,0,0,0,0],"id":37,"left_children":[1,3,5,-1,-1,7,9,-1,-1,-1,11,-1,-1],"loss_changes":[3.2572475E-1,6.982434E-1,6.436097E-1,0E0,0E0,3.551125E-1,5.2397805E-1,0E0,0E0,0E0,2.346611E-2,0E0,0E0],"parents":[2147483647,0,0,1,1,2,2,5,5,6,6,10,10],"right_children":[2,4,6,-1,-1,8,10,-1,-1,-1,12,-1,-1],"split_conditions":[-1.637373E-1,9.141608E-1,2.9390752E-1,-1.6171768E-1,7.445251E-2,2.5699282E-1,-1.0241009E0,-1.1559944E-2,1.7995152E-1,7.196119E-2,-2.7360418E-1,-3.6119934E-2,-1.5590054E-1],"split_indices":[24,25,24,0,0,16,13,0,0,0,6,0,0],"split_type":[0,0,0,0,0,0,0,0,0,0,0,0,0],"sum_hessian":[8.869052E0,3.0865648E0,5.782487E0,2.0315263E0,1.0550385E0,2.6271017E0,3.1553853E0,1.1752423E0,1.4518592E0,1.0831351E0,2.0722501E0,1.0000395E0,1.0722106E0],"tree_param":{"num_deleted":"0","num_feature":"30","num_nodes":"13","size_leaf_vector":"1"}},{"base_weights":[-4.9066197E-2,-1.1287991E-1,4.059656E-2,1.1854096E-1,-8.524103E-2,-1.5851972E-1,8.8900685E-2,1.3645488E-1,-1.3459176E-1,-1.3018675E-1,9.06833E-2],"categories":[],"categories_nodes":[],"categories_segments":[],"categories_sizes":[],"default_left":[0,0,0,0,0,0,0,0,0,0,0],"id":38,"left_children":[1,-1,3,-1,5,-1,7,-1,9,-1,-1],"loss_changes":[2.9356623E-1,0E0,4.061285E-1,0E0,5.859336E-1,0E0,5.4128003E-1,0E0,7.086847E-1,0E0,0E0],"parents":[2147483647,0,0,2,2,4,4,6,6,8,8],"right_children":[2,-1,4,-1,6,-1,8,-1,10,-1,-1],"split_conditions":[-6.7863435E-1,-1.1287991E-1,-3.8375944E-1,1.1854096E-1,2.3993969E-1,-1.5851972E-1,4.1415343E-1,1.3645488E-1,8.06183E-1,-1.3018675E-1,9.06833E-2],"split_indices":[21,0,21,0,21,0,21,0,7,0,0],"split_type":[0,0,0,0,0,0,0,0,0,0,0],"sum_hessian":[8.485795E0,1.137679E0,7.348116E0,1.3642818E0,5.9838343E0,1.1141715E0,4.869663E0,1.4538779E0,3.4157848E0,2.0308309E0,1.3849541E0],"tree_param":{"num_deleted":"0","num_feature":"30","num_nodes":"11","size_leaf_vector":"1"}},{"base_weights":[-4.5641467E-2,1.5521576E-1,-1.9327869E-1,-9.087396E-2,1.7208262E-1,-3.975958E-1,7.274567E-2,2.2807424E-3,-1.7082527E-1],"categories":[],"categories_nodes":[],"categories_segments":[],"categories_sizes":[],"default_left":[0,0,0,0,0,0,0,0,0],"id":39,"left_children":[1,3,5,-1,-1,7,-1,-1,-1],"loss_changes":[2.995663E-1,1.0182271E0,6.025432E-1,0E0,0E0,3.0014902E-1,0E0,0E0,0E0],"parents":[2147483647,0,0,1,1,2,2,5,5],"right_children":[2,4,6,-1,-1,8,-1,-1,-1],"split_conditions":[-2.4987458E-1,-4.5170906E-1,1.2276131E0,-9.087396E-2,1.7208262E-1,-7.169631E-1,7.274567E-2,2.2807424E-3,-1.7082527E-1],"split_indices":[7,7,15,0,0,4,0,0,0],"split_type":[0,0,0,0,0,0,0,0,0],"sum_hessian":[8.090389E0,3.40569E0,4.684699E0,1.7573963E0,1.6482936E0,3.2489507E0,1.4357481E0,1.2520533E0,1.9968976E0],"tree_param":{"num_deleted":"0","num_feature":"30","num_nodes":"9","size_leaf_vector":"1"}},{"base_weights":[-3.825787E-2,8.2875684E-2,-2.6997483E-1,2.3039621E-1,-8.5757256E-2,-1.3900644E-1,2.4130177E-2,3.800071E-1,-3.391981E-2,6.4473078E-3,1.5692143E-1],"categories":[],"categories_nodes":[],"categories_segments":[],"categories_sizes":[],"default_left":[0,0,0,0,0,0,0,0,0,0,0],"id":40,"left_children":[1,3,5,7,-1,-1,-1,9,-1,-1,-1],"loss_changes":[2.6731268E-1,4.192011E-1,2.5618434E-1,3.0982652E-1,0E0,0E0,0E0,1.8606544E-1,0E0,0E0,0E0],"parents":[2147483647,0,0,1,1,2,2,3,3,7,7],"right_children":[2,4,6,8,-1,-1,-1,10,-1,-1,-1],"split_conditions":[2.0547406E-1,5.143185E-1,5.055363E-1,1.8330638E-1,-8.5757256E-2,-1.3900644E-1,2.4130177E-2,2.1120605E-1,-3.391981E-2,6.4473078E-3,1.5692143E-1],"split_indices":[13,1,14,20,0,0,0,29,0,0,0],"split_type":[0,0,0,0,0,0,0,0,0,0,0],"sum_hessian":[7.7263865E0,5.495744E0,2.2306428E0,4.1932874E0,1.3024566E0,1.2296885E0,1.0009542E0,2.8468213E0,1.3464662E0,1.1400645E0,1.7067568E0],"tree_param":{"num_deleted":"0","num_feature":"30","num_nodes":"11","size_leaf_vector":"1"}},{"base_weights":[-3.742891E-2,-8.545321E-2,7.978711E-2,-1.7540045E-1,2.8194937E-1,5.245528E-2,-1.3623047E-1,-1.2037327E-2,1.5771236E-1],"categories":[],"categories_nodes":[],"categories_segments":[],"categories_sizes":[],"default_left":[0,0,0,0,0,0,0,0,0],"id":41,"left_children":[1,-1,3,5,7,-1,-1,-1,-1],"loss_changes":[2.7014518E-1,0E0,3.8839662E-1,4.2306787E-1,3.3900407E-1,0E0,0E0,0E0,0E0],"parents":[2147483647,0,0,2,2,3,3,4,4],"right_children":[2,-1,4,6,8,-1,-1,-1,-1],"split_conditions":[-1.8970224E-1,-8.545321E-2,2.811829E-1,-6.5903884E-1,7.517197E-1,5.245528E-2,-1.3623047E-1,-1.2037327E-2,1.5771236E-1],"split_indices":[0,0,27,28,11,0,0,0,0],"split_type":[0,0,0,0,0,0,0,0,0],"sum_hessian":[7.5313673E0,1.9613489E0,5.5700183E0,2.520629E0,3.0493891E0,1.2820559E0,1.2385731E0,1.6735499E0,1.3758394E0],"tree_param":{"num_deleted":"0","num_feature":"30","num_nodes":"9","size_leaf_vector":"1"}},{"base_weights":[-3.142358E-2,7.193197E-2,-8.570683E-2,-9.169777E-2,1.9257727E-1,1.5700118E-1,-4.159052E-2,9.1807336E-2,-9.121891E-2],"categories":[],"categories_nodes":[],"categories_segments":[],"categories_sizes":[],"default_left":[0,0,0,0,0,0,0,0,0],"id":42,"left_children":[1,3,-1,-1,5,-1,7,-1,-1],"loss_changes":[2.3903984E-1,3.6453578E-1,0E0,0E0,4.6315038E-1,0E0,4.819972E-1,0E0,0E0],"parents":[2147483647,0,0,1,1,4,4,6,6],"right_children":[2,4,-1,-1,6,-1,8,-1,-1],"split_conditions":[4.6321055E-1,-4.5170906E-1,-8.570683E-2,-9.169777E-2,-2.4987458E-1,1.5700118E-1,-7.730174E-1,9.1807336E-2,-9.121891E-2],"split_indices":[26,7,0,0,7,0,16,0,0],"split_type":[0,0,0,0,0,0,0,0,0],"sum_hessian":[7.3139815E0,5.7100315E0,1.6039498E0,1.0113161E0,4.6987157E0,1.4357914E0,3.2629242E0,1.3323925E0,1.9305317E0],"tree_param":{"num_deleted":"0","num_feature":"30","num_nodes":"9","size_leaf_vector":"1"}},{"base_weights":[-2.6339518E-2,-2.0305938E-1,1.1388711E-1,-1.3231608E-1,5.3617306E-2,1.043638E-1,-6.599841E-2,6.611283E-2,-1.0592595E-1],"categories":[],"categories_nodes":[],"categories_segments":[],"categories_sizes":[],"default_left":[0,0,0,0,0,0,0,0,0],"id":43,"left_children":[1,3,5,-1,-1,-1,7,-1,-1],"loss_changes":[2.2219783E-1,4.344168E-1,2.3846129E-1,0E0,0E0,0E0,3.8489178E-1,0E0,0E0],"parents":[2147483647,0,0,1,1,2,2,6,6],"right_children":[2,4,6,-1,-1,-1,8,-1,-1],"split_conditions":[2.3993969E-1,8.154437E-1,-8.8151395E-1,-1.3231608E-1,5.3617306E-2,1.043638E-1,-5.129637E-1,6.611283E-2,-1.0592595E-1],"split_indices":[21,12,9,0,0,0,5,0,0],"split_type":[0,0,0,0,0,0,0,0,0],"sum_hessian":[7.033306E0,2.9135015E0,4.119805E0,1.6990887E0,1.2144129E0,1.3847071E0,2.7350976E0,1.4855824E0,1.2495153E0],"tree_param":{"num_deleted":"0","num_feature":"30","num_nodes":"9","size_leaf_vector":"1"}},{"base_weights":[-2.2863962E-2,-2.3141927E-1,9.685871E-2,1.6728016E-2,-1.1758887E-1,-1.659259E-1,3.035177E-1,4.8269942E-2,-1.2165033E-1,1.4372985E-1,-1.907782E-2],"categories":[],"categories_nodes":[],"categories_segments":[],"categories_sizes":[],"default_left":[0,0,0,0,0,0,0,0,0,0,0],"id":44,"left_children":[1,3,5,-1,-1,7,9,-1,-1,-1,-1],"loss_changes":[2.170673E-1,1.6654108E-1,3.5760993E-1,0E0,0E0,3.1088272E-1,2.573901E-1,0E0,0E0,0E0,0E0],"parents":[2147483647,0,0,1,1,2,2,5,5,6,6],"right_children":[2,4,6,-1,-1,8,10,-1,-1,-1,-1],"split_conditions":[-1.637373E-1,-3.9110345E-1,2.063107E-1,1.6728016E-2,-1.1758887E-1,-5.786157E-1,4.8656934E-1,4.8269942E-2,-1.2165033E-1,1.4372985E-1,-1.907782E-2],"split_indices":[24,10,16,0,0,14,16,0,0,0,0],"split_type":[0,0,0,0,0,0,0,0,0,0,0],"sum_hessian":[6.7958236E0,2.1381805E0,4.657643E0,1.0007412E0,1.1374391E0,2.1371617E0,2.5204813E0,1.0428767E0,1.094285E0,1.4986504E0,1.0218309E0],"tree_param":{"num_deleted":"0","num_feature":"30","num_nodes":"11","size_leaf_vector":"1"}},{"base_weights":[-2.4432303E-2,6.962378E-2,-7.7319E-2,-1.486999E-1,2.982043E-1,-1.5450794E-1,5.2845325E-2,1.0773555E-1,3.017781E-2],"categories":[],"categories_nodes":[],"categories_segments":[],"categories_sizes":[],"default_left":[0,0,0,0,0,0,0,0,0],"id":45,"left_children":[1,3,-1,5,7,-1,-1,-1,-1],"loss_changes":[1.8405214E-1,3.5286528E-1,0E0,5.4641926E-1,4.2354465E-3,0E0,0E0,0E0,0E0],"parents":[2147483647,0,0,1,1,3,3,4,4],"right_children":[2,4,-1,6,8,-1,-1,-1,-1],"split_conditions":[4.6321055E-1,-5.0255828E-2,-7.7319E-2,2.4316834E-1,-3.6069643E-1,-1.5450794E-1,5.2845325E-2,1.0773555E-1,3.017781E-2],"split_indices":[26,26,0,23,23,0,0,0,0],"split_type":[0,0,0,0,0,0,0,0,0],"sum_hessian":[6.569952E0,5.1822486E0,1.3877037E0,2.829335E0,2.3529134E0,1.0546303E0,1.7747048E0,1.1737944E0,1.179119E0],"tree_param":{"num_deleted":"0","num_feature":"30","num_nodes":"9","size_leaf_vector":"1"}},{"base_weights":[-2.502213E-2,7.921916E-2,-6.996454E-2,2.157948E-1,-6.556762E-2,-1.7489707E-2,1.15065046E-1],"categories":[],"categories_nodes":[],"categories_segments":[],"categories_sizes":[],"default_left":[0,0,0,0,0,0,0],"id":46,"left_children":[1,3,-1,5,-1,-1,-1],"loss_changes":[1.7815484E-1,2.769174E-1,0E0,2.235798E-1,0E0,0E0,0E0],"parents":[2147483647,0,0,1,1,3,3],"right_children":[2,4,-1,6,-1,-1,-1],"split_conditions":[2.0547406E-1,3.463687E-1,-6.996454E-2,4.5054224E-1,-6.556762E-2,-1.7489707E-2,1.15065046E-1],"split_indices":[13,14,0,27,0,0,0],"split_type":[0,0,0,0,0,0,0],"sum_hessian":[6.357731E0,4.649326E0,1.7084048E0,3.3761656E0,1.2731602E0,1.5295404E0,1.8466253E0],"tree_param":{"num_deleted":"0","num_feature":"30","num_nodes":"7","size_leaf_vector":"1"}},{"base_weights":[-2.3457615E-2,-1.23891585E-1,6.04644E-2,-3.120838E-1,8.2181066E-2,2.4557678E-2,-1.6053656E-1,-5.744752E-2,9.183431E-2],"categories":[],"categories_nodes":[],"categories_segments":[],"categories_sizes":[],"default_left":[0,0,0,0,0,0,0,0,0],"id":47,"left_children":[1,3,-1,5,7,-1,-1,-1,-1],"loss_changes":[1.8856642E-1,2.4377349E-1,0E0,3.2042238E-1,2.7166027E-1,0E0,0E0,0E0,0E0],"parents":[2147483647,0,0,1,1,3,3,4,4],"right_children":[2,4,-1,6,8,-1,-1,-1,-1],"split_conditions":[1.2276131E0,2.0445469E-1,6.04644E-2,-4.9409142E-1,4.1662762E-1,2.4557678E-2,-1.6053656E-1,-5.744752E-2,9.183431E-2],"split_indices":[15,24,0,29,29,0,0,0,0],"split_type":[0,0,0,0,0,0,0,0,0],"sum_hessian":[6.2393494E0,4.624522E0,1.6148269E0,2.1482422E0,2.47628E0,1.0054103E0,1.1428319E0,1.1795739E0,1.2967062E0],"tree_param":{"num_deleted":"0","num_feature":"30","num_nodes":"9","size_leaf_vector":"1"}},{"base_weights":[-2.4824942E-2,-6.5926254E-2,7.164744E-2,2.992524E-1,-1.6181347E-1,1.1437782E-1,2.1542735E-2,-1.2151246E-1,3.621364E-2],"categories":[],"categories_nodes":[],"categories_segments":[],"categories_sizes":[],"default_left":[0,0,0,0,0,0,0,0,0],"id":48,"left_children":[1,-1,3,5,7,-1,-1,-1,-1],"loss_changes":[1.4840525E-1,0E0,3.392459E-1,3.0858248E-2,2.791565E-1,0E0,0E0,0E0,0E0],"parents":[2147483647,0,0,2,2,3,3,4,4],"right_children":[2,-1,4,6,8,-1,-1,-1,-1],"split_conditions":[-2.9931998E-1,-6.5926254E-2,5.5706523E-2,-3.8375944E-1,2.4847814E-1,1.1437782E-1,2.1542735E-2,-1.2151246E-1,3.621364E-2],"split_indices":[8,0,8,21,26,0,0,0,0],"split_type":[0,0,0,0,0,0,0,0,0],"sum_hessian":[6.0544224E0,1.5813321E0,4.47309E0,2.122257E0,2.3508332E0,1.062778E0,1.059479E0,1.0302441E0,1.3205891E0],"tree_param":{"num_deleted":"0","num_feature":"30","num_nodes":"9","size_leaf_vector":"1"}},{"base_weights":[-2.096843E-2,-1.9541101E-1,1.1296505E-1,-1.2444418E-1,2.6552597E-2,1.0076357E-1,-5.881545E-2,-1.0029397E-1,7.982171E-2],"categories":[],"categories_nodes":[],"categories_segments":[],"categories_sizes":[],"default_left":[0,0,0,0,0,0,0,0,0],"id":49,"left_children":[1,3,5,-1,-1,-1,7,-1,-1],"loss_changes":[1.8314935E-1,2.4605677E-1,1.9335692E-1,0E0,0E0,0E0,3.9429712E-1,0E0,0E0],"parents":[2147483647,0,0,1,1,2,2,6,6],"right_children":[2,4,6,-1,-1,-1,8,-1,-1],"split_conditions":[2.3993969E-1,2.7277318E-1,4.1415343E-1,-1.2444418E-1,2.6552597E-2,1.0076357E-1,8.06183E-1,-1.0029397E-1,7.982171E-2],"split_indices":[21,24,21,0,0,0,7,0,0],"split_type":[0,0,0,0,0,0,0,0,0],"sum_hessian":[5.8942313E0,2.3606157E0,3.5336156E0,1.0715414E0,1.2890742E0,1.1221559E0,2.4114597E0,1.2892189E0,1.1222408E0],"tree_param":{"num_deleted":"0","num_feature":"30","num_nodes":"9","size_leaf_vector":"1"}},{"base_weights":[-1.9209938E-2,7.2642446E-2,-7.272867E-2,-1.0202371E-1,2.4144773E-1,6.0737815E-2,-1.0419255E-1,8.9377284E-2,2.0225123E-2],"categories":[],"categories_nodes":[],"categories_segments":[],"categories_sizes":[],"default_left":[0,0,0,0,0,0,0,0,0],"id":50,"left_children":[1,3,-1,5,7,-1,-1,-1,-1],"loss_changes":[1.549262E-1,1.8721926E-1,0E0,3.2521978E-1,1.0395631E-2,0E0,0E0,0E0,0E0],"parents":[2147483647,0,0,1,1,3,3,4,4],"right_children":[2,4,-1,6,8,-1,-1,-1,-1],"split_conditions":[4.6321055E-1,-5.0255828E-2,-7.272867E-2,-6.5903884E-1,-3.6069643E-1,6.0737815E-2,-1.0419255E-1,8.9377284E-2,2.0225123E-2],"split_indices":[26,26,0,28,23,0,0,0,0],"split_type":[0,0,0,0,0,0,0,0,0],"sum_hessian":[5.697278E0,4.5142694E0,1.1830086E0,2.413051E0,2.1012185E0,1.1545056E0,1.2585454E0,1.0489165E0,1.0523019E0],"tree_param":{"num_deleted":"0","num_feature":"30","num_nodes":"9","size_leaf_vector":"1"}},{"base_weights":[-1.5603276E-2,-1.1451127E-1,5.3067405E-2,-1.1362835E-1,8.673428E-2,8.678586E-2,-4.361055E-2],"categories":[],"categories_nodes":[],"categories_segments":[],"categories_sizes":[],"default_left":[0,0,0,0,0,0,0],"id":51,"left_children":[1,3,-1,-1,5,-1,-1],"loss_changes":[1.4510037E-1,2.9548144E-1,0E0,0E0,2.1210733E-1,0E0,0E0],"parents":[2147483647,0,0,1,1,4,4],"right_children":[2,4,-1,-1,6,-1,-1],"split_conditions":[1.0131102E0,1.7828155E-1,5.3067405E-2,-1.1362835E-1,-8.740542E-1,8.678586E-2,-4.361055E-2],"split_indices":[28,18,0,0,28,0,0],"split_type":[0,0,0,0,0,0,0],"sum_hessian":[5.5572057E0,3.9385905E0,1.6186152E0,1.3214054E0,2.617185E0,1.2659992E0,1.3511859E0],"tree_param":{"num_deleted":"0","num_feature":"30","num_nodes":"7","size_leaf_vector":"1"}},{"base_weights":[-1.49110705E-2,-1.7531726E-1,1.0624895E-1,-1.0299415E-1,2.7576795E-2,-3.9425462E-2,2.270338E-1,1.2761356E-1,-1.939784E-2],"categories":[],"categories_nodes":[],"categories_segments":[],"categories_sizes":[],"default_left":[0,0,0,0,0,0,0,0,0],"id":52,"left_children":[1,3,5,-1,-1,-1,7,-1,-1],"loss_changes":[1.4340596E-1,1.7253354E-1,1.527088E-1,0E0,0E0,0E0,2.1291056E-1,0E0,0E0],"parents":[2147483647,0,0,1,1,2,2,6,6],"right_children":[2,4,6,-1,-1,-1,8,-1,-1],"split_conditions":[2.3993969E-1,7.5010115E-1,-1.1011528E-1,-1.0299415E-1,2.7576795E-2,-3.9425462E-2,1.2064485E-1,1.2761356E-1,-1.939784E-2],"split_indices":[21,12,6,0,0,0,6,0,0],"split_type":[0,0,0,0,0,0,0,0,0],"sum_hessian":[5.4203687E0,2.140082E0,3.2802866E0,1.1392459E0,1.000836E0,1.0756685E0,2.204618E0,1.0394846E0,1.1651335E0],"tree_param":{"num_deleted":"0","num_feature":"30","num_nodes":"9","size_leaf_vector":"1"}},{"base_weights":[-1.2000291E-2,4.9427915E-2,-1.0506873E-1,-2.9459894E-1,4.768001E-2,1.2978397E-2,-1.5056983E-1],"categories":[],"categories_nodes":[],"categories_segments":[],"categories_sizes":[],"default_left":[0,0,0,0,0,0,0],"id":53,"left_children":[1,-1,3,5,-1,-1,-1],"loss_changes":[1.20637335E-1,0E0,2.8325048E-1,2.388989E-1,0E0,0E0,0E0],"parents":[2147483647,0,0,2,2,3,3],"right_children":[2,-1,4,6,-1,-1,-1],"split_conditions":[-9.292713E-1,4.9427915E-2,5.2975225E-1,-3.9110345E-1,4.768001E-2,1.2978397E-2,-1.5056983E-1],"split_indices":[4,0,23,10,0,0,0],"split_type":[0,0,0,0,0,0,0],"sum_hessian":[5.2809334E0,1.555792E0,3.7251413E0,2.100949E0,1.6241922E0,1.0997983E0,1.0011506E0],"tree_param":{"num_deleted":"0","num_feature":"30","num_nodes":"7","size_leaf_vector":"1"}},{"base_weights":[-1.693615E-2,-1.4101918E-1,1.12950556E-1,3.028201E-2,-8.894205E-2,7.297166E-2,-1.8948128E-2],"categories":[],"categories_nodes":[],"categories_segments":[],"categories_sizes":[],"default_left":[0,0,0,0,0,0,0],"id":54,"left_children":[1,3,5,-1,-1,-1,-1],"loss_changes":[1.15133196E-1,1.6506322E-1,9.710834E-2,0E0,0E0,0E0,0E0],"parents":[2147483647,0,0,1,1,2,2],"right_children":[2,4,6,-1,-1,-1,-1],"split_conditions":[4.652652E-1,-4.7196183E-1,8.389112E-1,3.028201E-2,-8.894205E-2,7.297166E-2,-1.8948128E-2],"split_indices":[22,1,22,0,0,0,0],"split_type":[0,0,0,0,0,0,0],"sum_hessian":[5.155403E0,2.5927732E0,2.5626302E0,1.1513753E0,1.4413978E0,1.2538524E0,1.3087778E0],"tree_param":{"num_deleted":"0","num_feature":"30","num_nodes":"7","size_leaf_vector":"1"}},{"base_weights":[-1.3282759E-2,-1.3655135E-1,1.1158342E-1,2.3547646E-2,-9.351459E-2,7.65328E-2,-3.040509E-2],"categories":[],"categories_nodes":[],"categories_segments":[],"categories_sizes":[],"default_left":[0,0,0,0,0,0,0],"id":55,"left_children":[1,3,5,-1,-1,-1,-1],"loss_changes":[1.0872228E-1,1.5653239E-1,1.3488548E-1,0E0,0E0,0E0,0E0],"parents":[2147483647,0,0,1,1,2,2],"right_children":[2,4,6,-1,-1,-1,-1],"split_conditions":[5.512031E-1,-6.7499775E-1,9.9048775E-1,2.3547646E-2,-9.351459E-2,7.65328E-2,-3.040509E-2],"split_indices":[3,2,3,0,0,0,0],"split_type":[0,0,0,0,0,0,0],"sum_hessian":[5.073605E0,2.5060434E0,2.5675619E0,1.3727064E0,1.1333371E0,1.4154333E0,1.1521285E0],"tree_param":{"num_deleted":"0","num_feature":"30","num_nodes":"7","size_leaf_vector":"1"}},{"base_weights":[-1.3918677E-2,-4.7606748E-2,9.518406E-2,8.089121E-2,-1.7666504E-2],"categories":[],"categories_nodes":[],"categories_segments":[],"categories_sizes":[],"default_left":[0,0,0,0,0],"id":56,"left_children":[1,-1,3,-1,-1],"loss_changes":[1.097843E-1,0E0,1.2455668E-1,0E0,0E0],"parents":[2147483647,0,0,2,2],"right_children":[2,-1,4,-1,-1],"split_conditions":[2.3993969E-1,-4.7606748E-2,-8.8151395E-1,8.089121E-2,-1.7666504E-2],"split_indices":[21,0,9,0,0],"split_type":[0,0,0,0,0],"sum_hessian":[4.9943323E0,1.9510088E0,3.0433235E0,1.0754935E0,1.96783E0],"tree_param":{"num_deleted":"0","num_feature":"30","num_nodes":"5","size_leaf_vector":"1"}},{"base_weights":[-7.2795376E-3,-9.0941995E-2,4.790078E-2,3.433324E-2,-7.911102E-2],"categories":[],"categories_nodes":[],"categories_segments":[],"categories_sizes":[],"default_left":[0,0,0,0,0],"id":57,"left_children":[1,3,-1,-1,-1],"loss_changes":[9.7374156E-2,1.9300207E-1,0E0,0E0,0E0],"parents":[2147483647,0,0,1,1],"right_children":[2,4,-1,-1,-1],"split_conditions":[1.2276131E0,-2.4987458E-1,4.790078E-2,3.433324E-2,-7.911102E-2],"split_indices":[15,7,0,0,0],"split_type":[0,0,0,0,0],"sum_hessian":[4.931943E0,3.5887806E0,1.3431625E0,1.7937973E0,1.7949833E0],"tree_param":{"num_deleted":"0","num_feature":"30","num_nodes":"5","size_leaf_vector":"1"}},{"base_weights":[-5.1163393E-3,-5.1629078E-2,7.579013E-2,1.771981E-1,-4.348498E-2,9.477989E-2,-1.736281E-2],"categories":[],"categories_nodes":[],"categories_segments":[],"categories_sizes":[],"default_left":[0,0,0,0,0,0,0],"id":58,"left_children":[1,-1,3,5,-1,-1,-1],"loss_changes":[9.244035E-2,0E0,1.298434E-1,1.3694099E-1,0E0,0E0,0E0],"parents":[2147483647,0,0,2,2,3,3],"right_children":[2,-1,4,6,-1,-1,-1],"split_conditions":[-1.8970224E-1,-5.1629078E-2,2.950631E-1,-4.9002406E-1,-4.348498E-2,9.477989E-2,-1.736281E-2],"split_indices":[0,0,6,28,0,0,0],"split_type":[0,0,0,0,0,0,0],"sum_hessian":[4.876997E0,1.2239048E0,3.6530921E0,2.638308E0,1.0147842E0,1.4428203E0,1.1954877E0],"tree_param":{"num_deleted":"0","num_feature":"30","num_nodes":"7","size_leaf_vector":"1"}},{"base_weights":[-6.7534316E-3,-1.0322053E-1,4.98265E-2,-1.00523084E-1,7.216188E-2,-4.2949654E-2,7.082748E-2],"categories":[],"categories_nodes":[],"categories_segments":[],"categories_sizes":[],"default_left":[0,0,0,0,0,0,0],"id":59,"left_children":[1,3,-1,-1,5,-1,-1],"loss_changes":[1.14055425E-1,2.0094591E-1,0E0,0E0,1.5020555E-1,0E0,0E0],"parents":[2147483647,0,0,1,1,4,4],"right_children":[2,4,-1,-1,6,-1,-1],"split_conditions":[1.0131102E0,1.7828155E-1,4.98265E-2,-1.00523084E-1,6.639734E-1,-4.2949654E-2,7.082748E-2],"split_indices":[28,18,0,0,12,0,0],"split_type":[0,0,0,0,0,0,0],"sum_hessian":[4.812304E0,3.3470428E0,1.465261E0,1.0493056E0,2.2977374E0,1.0479213E0,1.249816E0],"tree_param":{"num_deleted":"0","num_feature":"30","num_nodes":"7","size_leaf_vector":"1"}},{"base_weights":[-9.501309E-3,4.287941E-2,-9.461652E-2,5.2689664E-2,-2.311426E-1,1.4263163E-2,-1.1573584E-1],"categories":[],"categories_nodes":[],"categories_segments":[],"categories_sizes":[],"default_left":[0,0,0,0,0,0,0],"id":60,"left_children":[1,-1,3,-1,5,-1,-1],"loss_changes":[8.763281E-2,0E0,1.9803232E-1,0E0,1.5912476E-1,0E0,0E0],"parents":[2147483647,0,0,2,2,4,4],"right_children":[2,-1,4,-1,6,-1,-1],"split_conditions":[-9.292713E-1,4.287941E-2,-1.1805452E0,5.2689664E-2,-4.6515384E-1,1.4263163E-2,-1.1573584E-1],"split_indices":[4,0,5,0,20,0,0],"split_type":[0,0,0,0,0,0,0],"sum_hessian":[4.711978E0,1.4449502E0,3.2670279E0,1.0003775E0,2.2666504E0,1.05606E0,1.2105905E0],"tree_param":{"num_deleted":"0","num_feature":"30","num_nodes":"7","size_leaf_vector":"1"}},{"base_weights":[-8.902284E-3,-5.2665748E-2,6.882981E-2,-3.8090527E-2,1.8551692E-1,8.2234286E-2,1.6483204E-3],"categories":[],"categories_nodes":[],"categories_segments":[],"categories_sizes":[],"default_left":[0,0,0,0,0,0,0],"id":61,"left_children":[1,-1,3,-1,5,-1,-1],"loss_changes":[8.474751E-2,0E0,1.2736122E-1,0E0,5.03811E-2,0E0,0E0],"parents":[2147483647,0,0,2,2,4,4],"right_children":[2,-1,4,-1,6,-1,-1],"split_conditions":[-4.933276E-1,-5.2665748E-2,-1.4730511E-2,-3.8090527E-2,4.4540265E-1,8.2234286E-2,1.6483204E-3],"split_indices":[19,0,25,0,25,0,0],"split_type":[0,0,0,0,0,0,0],"sum_hessian":[4.609377E0,1.0658551E0,3.5435216E0,1.290307E0,2.2532146E0,1.1597713E0,1.0934434E0],"tree_param":{"num_deleted":"0","num_feature":"30","num_nodes":"7","size_leaf_vector":"1"}},{"base_weights":[-7.613778E-3,-1.2467891E-1,1.0951058E-1,-8.0904625E-2,2.631905E-2,6.706549E-2,-1.6694013E-2],"categories":[],"categories_nodes":[],"categories_segments":[],"categories_sizes":[],"default_left":[0,0,0,0,0,0,0],"id":62,"left_children":[1,3,5,-1,-1,-1,-1],"loss_changes":[8.986128E-2,1.236776E-1,7.479626E-2,0E0,0E0,0E0,0E0],"parents":[2147483647,0,0,1,1,2,2],"right_children":[2,4,6,-1,-1,-1,-1],"split_conditions":[4.652652E-1,4.4683695E-1,8.389112E-1,-8.0904625E-2,2.631905E-2,6.706549E-2,-1.6694013E-2],"split_indices":[22,19,22,0,0,0,0],"split_type":[0,0,0,0,0,0,0],"sum_hessian":[4.5580654E0,2.2473507E0,2.3107147E0,1.1753505E0,1.0720001E0,1.1577326E0,1.152982E0],"tree_param":{"num_deleted":"0","num_feature":"30","num_nodes":"7","size_leaf_vector":"1"}},{"base_weights":[-6.5443167E-3,7.790194E-2,-4.4403918E-2,-2.7618976E-2,7.833306E-2],"categories":[],"categories_nodes":[],"categories_segments":[],"categories_sizes":[],"default_left":[0,0,0,0,0],"id":63,"left_children":[1,3,-1,-1,-1],"loss_changes":[7.710846E-2,1.5147792E-1,0E0,0E0,0E0],"parents":[2147483647,0,0,1,1],"right_children":[2,4,-1,-1,-1],"split_conditions":[2.700626E-1,-5.0255828E-2,-4.4403918E-2,-2.7618976E-2,7.833306E-2],"split_indices":[26,26,0,0,0],"split_type":[0,0,0,0,0],"sum_hessian":[4.4892993E0,3.0925896E0,1.3967099E0,1.862351E0,1.2302386E0],"tree_param":{"num_deleted":"0","num_feature":"30","num_nodes":"5","size_leaf_vector":"1"}},{"base_weights":[-3.4926287E-3,-9.486061E-2,3.7699662E-2,3.6565818E-2,-1.0075752E-1],"categories":[],"categories_nodes":[],"categories_segments":[],"categories_sizes":[],"default_left":[0,0,0,0,0],"id":64,"left_children":[1,3,-1,-1,-1],"loss_changes":[7.602703E-2,2.3689528E-1,0E0,0E0,0E0],"parents":[2147483647,0,0,1,1],"right_children":[2,4,-1,-1,-1],"split_conditions":[8.3303237E-1,-6.346487E-1,3.7699662E-2,3.6565818E-2,-1.0075752E-1],"split_indices":[3,2,0,0,0],"split_type":[0,0,0,0,0],"sum_hessian":[4.432315E0,2.7514524E0,1.6808623E0,1.708826E0,1.0426264E0],"tree_param":{"num_deleted":"0","num_feature":"30","num_nodes":"5","size_leaf_vector":"1"}},{"base_weights":[-8.095699E-3,-4.8649002E-2,6.608312E-2,1.7665747E-1,-4.5068566E-2,6.0544014E-3,7.2952904E-2],"categories":[],"categories_nodes":[],"categories_segments":[],"categories_sizes":[],"default_left":[0,0,0,0,0,0,0],"id":65,"left_children":[1,-1,3,5,-1,-1,-1],"loss_changes":[7.211775E-2,0E0,1.302745E-1,2.9748283E-2,0E0,0E0,0E0],"parents":[2147483647,0,0,2,2,3,3],"right_children":[2,-1,4,6,-1,-1,-1],"split_conditions":[-6.279691E-1,-4.8649002E-2,1.8330638E-1,6.1322534E-1,-4.5068566E-2,6.0544014E-3,7.2952904E-2],"split_indices":[29,0,20,3,0,0,0],"split_type":[0,0,0,0,0,0,0],"sum_hessian":[4.3726387E0,1.0356027E0,3.337036E0,2.3295398E0,1.0074961E0,1.0836949E0,1.2458448E0],"tree_param":{"num_deleted":"0","num_feature":"30","num_nodes":"7","size_leaf_vector":"1"}},{"base_weights":[-8.58197E-3,-5.078404E-2,7.3315635E-2,2.2053458E-1,-5.5059496E-2,1.5831954E-3,9.6429005E-2],"categories":[],"categories_nodes":[],"categories_segments":[],"categories_sizes":[],"default_left":[0,0,0,0,0,0,0],"id":66,"left_children":[1,-1,3,5,-1,-1,-1],"loss_changes":[8.250202E-2,0E0,2.0025773E-1,6.65053E-2,0E0,0E0,0E0],"parents":[2147483647,0,0,2,2,3,3],"right_children":[2,-1,4,6,-1,-1,-1],"split_conditions":[-5.111148E-1,-5.078404E-2,1.2064485E-1,5.47847E-1,-5.5059496E-2,1.5831954E-3,9.6429005E-2],"split_indices":[20,0,6,0,0,0,0],"split_type":[0,0,0,0,0,0,0],"sum_hessian":[4.325753E0,1.1001277E0,3.2256255E0,2.1402576E0,1.0853679E0,1.0188587E0,1.121399E0],"tree_param":{"num_deleted":"0","num_feature":"30","num_nodes":"7","size_leaf_vector":"1"}},{"base_weights":[-7.6182247E-3,-4.4300795E-2,7.265687E-2,7.222375E-2,-3.56873E-2],"categories":[],"categories_nodes":[],"categories_segments":[],"categories_sizes":[],"default_left":[0,0,0,0,0],"id":67,"left_children":[1,-1,3,-1,-1],"loss_changes":[6.9757126E-2,0E0,1.5771805E-1,0E0,0E0],"parents":[2147483647,0,0,2,2],"right_children":[2,-1,4,-1,-1],"split_conditions":[-1.637373E-1,-4.4300795E-2,2.9390752E-1,7.222375E-2,-3.56873E-2],"split_indices":[24,0,24,0,0],"split_type":[0,0,0,0,0],"sum_hessian":[4.2503743E0,1.2427255E0,3.0076487E0,1.4655902E0,1.5420585E0],"tree_param":{"num_deleted":"0","num_feature":"30","num_nodes":"5","size_leaf_vector":"1"}},{"base_weights":[-6.963058E-3,-1.1932738E-1,1.01182416E-1,-7.742516E-2,2.3945699E-2,6.294919E-2,-1.7611114E-2],"categories":[],"categories_nodes":[],"categories_segments":[],"categories_sizes":[],"default_left":[0,0,0,0,0,0,0],"id":68,"left_children":[1,3,5,-1,-1,-1,-1],"loss_changes":[7.529781E-2,1.0378958E-1,6.777343E-2,0E0,0E0,0E0,0E0],"parents":[2147483647,0,0,1,1,2,2],"right_children":[2,4,6,-1,-1,-1,-1],"split_conditions":[4.652652E-1,4.184089E-1,8.389112E-1,-7.742516E-2,2.3945699E-2,6.294919E-2,-1.7611114E-2],"split_indices":[22,17,22,0,0,0,0],"split_type":[0,0,0,0,0,0,0],"sum_hessian":[4.2028947E0,2.0105326E0,2.192362E0,1.0105059E0,1.0000267E0,1.1193497E0,1.0730125E0],"tree_param":{"num_deleted":"0","num_feature":"30","num_nodes":"7","size_leaf_vector":"1"}},{"base_weights":[-6.8218303E-3,-4.5055352E-2,6.461235E-2,-3.6018748E-2,1.665052E-1,7.32822E-2,3.4275546E-3],"categories":[],"categories_nodes":[],"categories_segments":[],"categories_sizes":[],"default_left":[0,0,0,0,0,0,0],"id":69,"left_children":[1,-1,3,-1,5,-1,-1],"loss_changes":[6.2399507E-2,0E0,9.777162E-2,0E0,3.43884E-2,0E0,0E0],"parents":[2147483647,0,0,2,2,4,4],"right_children":[2,-1,4,-1,6,-1,-1],"split_conditions":[-1.8970224E-1,-4.5055352E-2,2.3993969E-1,-3.6018748E-2,-4.1994518E-1,7.32822E-2,3.4275546E-3],"split_indices":[0,0,21,0,9,0,0],"split_type":[0,0,0,0,0,0,0],"sum_hessian":[4.145567E0,1.0120488E0,3.1335185E0,1.0507586E0,2.0827599E0,1.0040871E0,1.0786728E0],"tree_param":{"num_deleted":"0","num_feature":"30","num_nodes":"7","size_leaf_vector":"1"}},{"base_weights":[-5.694689E-3,-4.4936173E-2,6.718065E-2,1.8854567E-1,-4.3930177E-2,2.5477512E-3,8.309339E-2],"categories":[],"categories_nodes":[],"categories_segments":[],"categories_sizes":[],"default_left":[0,0,0,0,0,0,0],"id":70,"left_children":[1,-1,3,5,-1,-1,-1],"loss_changes":[6.360142E-2,0E0,1.3329148E-1,4.5998678E-2,0E0,0E0,0E0],"parents":[2147483647,0,0,2,2,3,3],"right_children":[2,-1,4,6,-1,-1,-1],"split_conditions":[-5.111148E-1,-4.4936173E-2,1.2064485E-1,4.184089E-1,-4.3930177E-2,2.5477512E-3,8.309339E-2],"split_indices":[20,0,6,17,0,0,0],"split_type":[0,0,0,0,0,0,0],"sum_hessian":[4.0985303E0,1.0221323E0,3.0763981E0,2.0366385E0,1.0397595E0,1.0318228E0,1.0048158E0],"tree_param":{"num_deleted":"0","num_feature":"30","num_nodes":"7","size_leaf_vector":"1"}},{"base_weights":[-4.6724044E-3,7.082525E-2,-4.5273393E-2,-3.161055E-2,5.488892E-2],"categories":[],"categories_nodes":[],"categories_segments":[],"categories_sizes":[],"default_left":[0,0,0,0,0],"id":71,"left_children":[1,3,-1,-1,-1],"loss_changes":[6.635306E-2,9.8423555E-2,0E0,0E0,0E0],"parents":[2147483647,0,0,1,1],"right_children":[2,4,-1,-1,-1],"split_conditions":[2.0547406E-1,1.5093288E-1,-4.5273393E-2,-3.161055E-2,5.488892E-2],"split_indices":[13,24,0,0,0],"split_type":[0,0,0,0,0],"sum_hessian":[4.041778E0,3.005724E0,1.0360544E0,1.1924627E0,1.8132613E0],"tree_param":{"num_deleted":"0","num_feature":"30","num_nodes":"5","size_leaf_vector":"1"}},{"base_weights":[-7.7956216E-3,-7.987017E-2,3.8906284E-2,3.671097E-2,-6.937649E-2],"categories":[],"categories_nodes":[],"categories_segments":[],"categories_sizes":[],"default_left":[0,0,0,0,0],"id":72,"left_children":[1,3,-1,-1,-1],"loss_changes":[6.0006462E-2,1.4788519E-1,0E0,0E0,0E0],"parents":[2147483647,0,0,1,1],"right_children":[2,4,-1,-1,-1],"split_conditions":[1.2276131E0,-5.059164E-1,3.8906284E-2,3.671097E-2,-6.937649E-2],"split_indices":[15,9,0,0,0],"split_type":[0,0,0,0,0],"sum_hessian":[4.0104027E0,2.9060059E0,1.1043967E0,1.3260944E0,1.5799115E0],"tree_param":{"num_deleted":"0","num_feature":"30","num_nodes":"5","size_leaf_vector":"1"}},{"base_weights":[-4.615212E-3,8.340663E-2,-3.754066E-2,-3.5617307E-2,8.174984E-2],"categories":[],"categories_nodes":[],"categories_segments":[],"categories_sizes":[],"default_left":[0,0,0,0,0],"id":73,"left_children":[1,3,-1,-1,-1],"loss_changes":[6.307518E-2,1.6489033E-1,0E0,0E0,0E0],"parents":[2147483647,0,0,1,1],"right_children":[2,4,-1,-1,-1],"split_conditions":[5.5706523E-2,-1.8240799E-1,-3.754066E-2,-3.5617307E-2,8.174984E-2],"split_indices":[8,8,0,0,0],"split_type":[0,0,0,0,0],"sum_hessian":[3.9619117E0,2.4676285E0,1.4942834E0,1.3725631E0,1.0950654E0],"tree_param":{"num_deleted":"0","num_feature":"30","num_nodes":"5","size_leaf_vector":"1"}},{"base_weights":[-1.4552624E-3,3.150923E-2,-9.468786E-2,-8.6193934E-2,4.1299414E-2],"categories":[],"categories_nodes":[],"categories_segments":[],"categories_sizes":[],"default_left":[0,0,0,0,0],"id":74,"left_children":[1,-1,3,-1,-1],"loss_changes":[5.859416E-2,0E0,1.8002634E-1,0E0,0E0],"parents":[2147483647,0,0,2,2],"right_children":[2,-1,4,-1,-1],"split_conditions":[-3.9110345E-1,3.150923E-2,5.2975225E-1,-8.6193934E-2,4.1299414E-2],"split_indices":[10,0,23,0,0],"split_type":[0,0,0,0,0],"sum_hessian":[3.9001987E0,1.7616158E0,2.138583E0,1.0399241E0,1.0986589E0],"tree_param":{"num_deleted":"0","num_feature":"30","num_nodes":"5","size_leaf_vector":"1"}},{"base_weights":[-4.264356E-3,-3.877571E-2,7.228855E-2,6.90946E-2,-2.5763033E-2],"categories":[],"categories_nodes":[],"categories_segments":[],"categories_sizes":[],"default_left":[0,0,0,0,0],"id":75,"left_children":[1,-1,3,-1,-1],"loss_changes":[5.577802E-2,0E0,1.11032456E-1,0E0,0E0],"parents":[2147483647,0,0,2,2],"right_children":[2,-1,4,-1,-1],"split_conditions":[-1.7238264E-1,-3.877571E-2,1.7262827E-1,6.90946E-2,-2.5763033E-2],"split_indices":[25,0,25,0,0],"split_type":[0,0,0,0,0],"sum_hessian":[3.8530114E0,1.2020378E0,2.6509736E0,1.0978835E0,1.55309E0],"tree_param":{"num_deleted":"0","num_feature":"30","num_nodes":"5","size_leaf_vector":"1"}},{"base_weights":[-2.0775816E-3,3.5988178E-2,-7.6844685E-2,-6.1481874E-2,2.947287E-2],"categories":[],"categories_nodes":[],"categories_segments":[],"categories_sizes":[],"default_left":[0,0,0,0,0],"id":76,"left_children":[1,-1,3,-1,-1],"loss_changes":[5.3150006E-2,0E0,1.0076483E-1,0E0,0E0],"parents":[2147483647,0,0,2,2],"right_children":[2,-1,4,-1,-1],"split_conditions":[-9.292713E-1,3.5988178E-2,5.2975225E-1,-6.1481874E-2,2.947287E-2],"split_indices":[4,0,23,0,0],"split_type":[0,0,0,0,0],"sum_hessian":[3.8147254E0,1.2195938E0,2.5951316E0,1.400224E0,1.1949077E0],"tree_param":{"num_deleted":"0","num_feature":"30","num_nodes":"5","size_leaf_vector":"1"}},{"base_weights":[-8.865681E-4,3.09106E-2,-9.592515E-2,-6.2777475E-2,1.953438E-2],"categories":[],"categories_nodes":[],"categories_segments":[],"categories_sizes":[],"default_left":[0,0,0,0,0],"id":77,"left_children":[1,-1,3,-1,-1],"loss_changes":[5.708448E-2,0E0,6.863624E-2,0E0,0E0],"parents":[2147483647,0,0,2,2],"right_children":[2,-1,4,-1,-1],"split_conditions":[-3.9110345E-1,3.09106E-2,2.241088E-1,-6.2777475E-2,1.953438E-2],"split_indices":[10,0,16,0,0],"split_type":[0,0,0,0,0],"sum_hessian":[3.7790577E0,1.7649714E0,2.0140862E0,1.0064025E0,1.0076839E0],"tree_param":{"num_deleted":"0","num_feature":"30","num_nodes":"5","size_leaf_vector":"1"}},{"base_weights":[-3.4242764E-3,-7.535503E-2,3.5138067E-2,2.8710818E-2,-6.994481E-2],"categories":[],"categories_nodes":[],"categories_segments":[],"categories_sizes":[],"default_left":[0,0,0,0,0],"id":78,"left_children":[1,3,-1,-1,-1],"loss_changes":[5.0068982E-2,1.1914203E-1,0E0,0E0,0E0],"parents":[2147483647,0,0,1,1],"right_children":[2,4,-1,-1,-1],"split_conditions":[1.0131102E0,-6.5903884E-1,3.5138067E-2,2.8710818E-2,-6.994481E-2],"split_indices":[28,28,0,0,0],"split_type":[0,0,0,0,0],"sum_hessian":[3.7562318E0,2.58733E0,1.1689017E0,1.4303013E0,1.1570287E0],"tree_param":{"num_deleted":"0","num_feature":"30","num_nodes":"5","size_leaf_vector":"1"}},{"base_weights":[-4.00897E-3,-2.9643396E-2,2.575083E-2],"categories":[],"categories_nodes":[],"categories_segments":[],"categories_sizes":[],"default_left":[0,0,0],"id":79,"left_children":[1,-1,-1],"loss_changes":[4.868679E-2,0E0,0E0],"parents":[2147483647,0,0],"right_children":[2,-1,-1],"split_conditions":[4.652652E-1,-2.9643396E-2,2.575083E-2],"split_indices":[22,0,0],"split_type":[0,0,0],"sum_hessian":[3.7202942E0,1.7616485E0,1.9586457E0],"tree_param":{"num_deleted":"0","num_feature":"30","num_nodes":"3","size_leaf_vector":"1"}},{"base_weights":[-3.6989355E-3,7.151418E-2,-3.3228565E-2,-2.9050305E-2,5.7822425E-2],"categories":[],"categories_nodes":[],"categories_segments":[],"categories_sizes":[],"default_left":[0,0,0,0,0],"id":80,"left_children":[1,3,-1,-1,-1],"loss_changes":[4.5831535E-2,8.75E-2,0E0,0E0,0E0],"parents":[2147483647,0,0,1,1],"right_children":[2,4,-1,-1,-1],"split_conditions":[2.9390752E-1,-1.637373E-1,-3.3228565E-2,-2.9050305E-2,5.7822425E-2],"split_indices":[24,24,0,0,0],"split_type":[0,0,0,0,0],"sum_hessian":[3.7078936E0,2.3729212E0,1.3349723E0,1.07763E0,1.2952912E0],"tree_param":{"num_deleted":"0","num_feature":"30","num_nodes":"5","size_leaf_vector":"1"}},{"base_weights":[-3.5973475E-3,-2.9305613E-2,2.5468934E-2],"categories":[],"categories_nodes":[],"categories_segments":[],"categories_sizes":[],"default_left":[0,0,0],"id":81,"left_children":[1,-1,-1],"loss_changes":[4.7242902E-2,0E0,0E0],"parents":[2147483647,0,0],"right_children":[2,-1,-1],"split_conditions":[5.512031E-1,-2.9305613E-2,2.5468934E-2],"split_indices":[3,0,0],"split_type":[0,0,0],"sum_hessian":[3.6779726E0,1.7322983E0,1.9456743E0],"tree_param":{"num_deleted":"0","num_feature":"30","num_nodes":"3","size_leaf_vector":"1"}},{"base_weights":[-3.4019835E-3,3.2875337E-2,-7.438637E-2,2.9170897E-2,-6.1483044E-2],"categories":[],"categories_nodes":[],"categories_segments":[],"categories_sizes":[],"default_left":[0,0,0,0,0],"id":82,"left_children":[1,-1,3,-1,-1],"loss_changes":[4.558185E-2,0E0,9.7497046E-2,0E0,0E0],"parents":[2147483647,0,0,2,2],"right_children":[2,-1,4,-1,-1],"split_conditions":[-9.292713E-1,3.2875337E-2,-3.136395E-1,2.9170897E-2,-6.1483044E-2],"split_indices":[4,0,7,0,0],"split_type":[0,0,0,0,0],"sum_hessian":[3.666956E0,1.2050637E0,2.4618921E0,1.1739312E0,1.2879609E0],"tree_param":{"num_deleted":"0","num_feature":"30","num_nodes":"5","size_leaf_vector":"1"}},{"base_weights":[-2.5174695E-3,7.311558E-2,-3.1697687E-2,-3.2791413E-2,7.145728E-2],"categories":[],"categories_nodes":[],"categories_segments":[],"categories_sizes":[],"default_left":[0,0,0,0,0],"id":83,"left_children":[1,3,-1,-1,-1],"loss_changes":[4.3875545E-2,1.2434265E-1,0E0,0E0,0E0],"parents":[2147483647,0,0,1,1],"right_children":[2,4,-1,-1,-1],"split_conditions":[5.5706523E-2,-1.8240799E-1,-3.1697687E-2,-3.2791413E-2,7.145728E-2],"split_indices":[8,8,0,0,0],"split_type":[0,0,0,0,0],"sum_hessian":[3.6341074E0,2.2646017E0,1.3695056E0,1.2362763E0,1.0283256E0],"tree_param":{"num_deleted":"0","num_feature":"30","num_nodes":"5","size_leaf_vector":"1"}},{"base_weights":[-2.150956E-4,-3.0792583E-2,7.471181E-2,-1.3834307E-2,4.7183424E-2],"categories":[],"categories_nodes":[],"categories_segments":[],"categories_sizes":[],"default_left":[0,0,0,0,0],"id":84,"left_children":[1,-1,3,-1,-1],"loss_changes":[4.287779E-2,0E0,3.9459117E-2,0E0,0E0],"parents":[2147483647,0,0,2,2],"right_children":[2,-1,4,-1,-1],"split_conditions":[2.3993969E-1,-3.0792583E-2,5.53395E-1,-1.3834307E-2,4.7183424E-2],"split_indices":[21,0,22,0,0],"split_type":[0,0,0,0,0],"sum_hessian":[3.5878043E0,1.3594751E0,2.228329E0,1.0838E0,1.144529E0],"tree_param":{"num_deleted":"0","num_feature":"30","num_nodes":"5","size_leaf_vector":"1"}},{"base_weights":[3.7735738E-4,-2.9811842E-2,7.6804206E-2,-2.0620486E-2,5.483679E-2],"categories":[],"categories_nodes":[],"categories_segments":[],"categories_sizes":[],"default_left":[0,0,0,0,0],"id":85,"left_children":[1,-1,3,-1,-1],"loss_changes":[4.2460103E-2,0E0,6.1162952E-2,0E0,0E0],"parents":[2147483647,0,0,2,2],"right_children":[2,-1,4,-1,-1],"split_conditions":[-1.4730511E-2,-2.9811842E-2,4.0094712E-1,-2.0620486E-2,5.483679E-2],"split_indices":[25,0,19,0,0],"split_type":[0,0,0,0,0],"sum_hessian":[3.568432E0,1.4177676E0,2.1506646E0,1.0543258E0,1.0963386E0],"tree_param":{"num_deleted":"0","num_feature":"30","num_nodes":"5","size_leaf_vector":"1"}},{"base_weights":[1.216213E-3,6.739532E-2,-3.282951E-2,6.18497E-2,-2.7827276E-2],"categories":[],"categories_nodes":[],"categories_segments":[],"categories_sizes":[],"default_left":[0,0,0,0,0],"id":86,"left_children":[1,3,-1,-1,-1],"loss_changes":[4.0657382E-2,9.608559E-2,0E0,0E0,0E0],"parents":[2147483647,0,0,1,1],"right_children":[2,4,-1,-1,-1],"split_conditions":[2.700626E-1,-6.5903884E-1,-3.282951E-2,6.18497E-2,-2.7827276E-2],"split_indices":[26,28,0,0,0],"split_type":[0,0,0,0,0],"sum_hessian":[3.5451462E0,2.462947E0,1.0821992E0,1.1656349E0,1.297312E0],"tree_param":{"num_deleted":"0","num_feature":"30","num_nodes":"5","size_leaf_vector":"1"}},{"base_weights":[1.0968343E-3,2.6722835E-2,-2.4308037E-2],"categories":[],"categories_nodes":[],"categories_segments":[],"categories_sizes":[],"default_left":[0,0,0],"id":87,"left_children":[1,-1,-1],"loss_changes":[3.9857086E-2,0E0,0E0],"parents":[2147483647,0,0],"right_children":[2,-1,-1],"split_conditions":[-3.9110345E-1,2.6722835E-2,-2.4308037E-2],"split_indices":[10,0,0],"split_type":[0,0,0],"sum_hessian":[3.5174713E0,1.6573203E0,1.8601512E0],"tree_param":{"num_deleted":"0","num_feature":"30","num_nodes":"3","size_leaf_vector":"1"}},{"base_weights":[1.2655861E-3,-3.173347E-2,6.9342345E-2,5.125211E-2,-2.2765685E-2],"categories":[],"categories_nodes":[],"categories_segments":[],"categories_sizes":[],"default_left":[0,0,0,0,0],"id":88,"left_children":[1,-1,3,-1,-1],"loss_changes":[4.0194906E-2,0E0,6.249726E-2,0E0,0E0],"parents":[2147483647,0,0,2,2],"right_children":[2,-1,4,-1,-1],"split_conditions":[-3.7252492E-1,-3.173347E-2,-4.411151E-1,5.125211E-2,-2.2765685E-2],"split_indices":[29,0,13,0,0],"split_type":[0,0,0,0,0],"sum_hessian":[3.5092795E0,1.1489166E0,2.360363E0,1.2855488E0,1.0748142E0],"tree_param":{"num_deleted":"0","num_feature":"30","num_nodes":"5","size_leaf_vector":"1"}},{"base_weights":[1.3449679E-4,-2.9906029E-2,6.548106E-2,6.479191E-2,-2.8115192E-2],"categories":[],"categories_nodes":[],"categories_segments":[],"categories_sizes":[],"default_left":[0,0,0,0,0],"id":89,"left_children":[1,-1,3,-1,-1],"loss_changes":[3.5799783E-2,0E0,9.9677175E-2,0E0,0E0],"parents":[2147483647,0,0,2,2],"right_children":[2,-1,4,-1,-1],"split_conditions":[-1.8240799E-1,-2.9906029E-2,5.5706523E-2,6.479191E-2,-2.8115192E-2],"split_indices":[8,0,8,0,0],"split_type":[0,0,0,0,0],"sum_hessian":[3.4875515E0,1.1718948E0,2.3156567E0,1.0070515E0,1.3086053E0],"tree_param":{"num_deleted":"0","num_feature":"30","num_nodes":"5","size_leaf_vector":"1"}},{"base_weights":[1.6519291E-3,-2.7854688E-2,6.973385E-2,-1.3709752E-2,4.3736823E-2],"categories":[],"categories_nodes":[],"categories_segments":[],"categories_sizes":[],"default_left":[0,0,0,0,0],"id":90,"left_children":[1,-1,3,-1,-1],"loss_changes":[3.5104305E-2,0E0,3.4383737E-2,0E0,0E0],"parents":[2147483647,0,0,2,2],"right_children":[2,-1,4,-1,-1],"split_conditions":[2.3993969E-1,-2.7854688E-2,1.4589526E-1,-1.3709752E-2,4.3736823E-2],"split_indices":[21,0,20,0,0],"split_type":[0,0,0,0,0],"sum_hessian":[3.4498718E0,1.2923068E0,2.1575649E0,1.0154715E0,1.1420935E0],"tree_param":{"num_deleted":"0","num_feature":"30","num_nodes":"5","size_leaf_vector":"1"}},{"base_weights":[1.630454E-3,6.987602E-2,-2.610692E-2,-2.6778724E-2,5.9554465E-2],"categories":[],"categories_nodes":[],"categories_segments":[],"categories_sizes":[],"default_left":[0,0,0,0,0],"id":91,"left_children":[1,3,-1,-1,-1],"loss_changes":[3.2897715E-2,8.034395E-2,0E0,0E0,0E0],"parents":[2147483647,0,0,1,1],"right_children":[2,4,-1,-1,-1],"split_conditions":[1.7262827E-1,-1.7238264E-1,-2.610692E-2,-2.6778724E-2,5.9554465E-2],"split_indices":[25,25,0,0,0],"split_type":[0,0,0,0,0],"sum_hessian":[3.4323902E0,2.0591004E0,1.3732897E0,1.0572647E0,1.0018356E0],"tree_param":{"num_deleted":"0","num_feature":"30","num_nodes":"5","size_leaf_vector":"1"}},{"base_weights":[2.6644047E-3,2.5762329E-2,-2.323895E-2],"categories":[],"categories_nodes":[],"categories_segments":[],"categories_sizes":[],"default_left":[0,0,0],"id":92,"left_children":[1,-1,-1],"loss_changes":[3.6029577E-2,0E0,0E0],"parents":[2147483647,0,0],"right_children":[2,-1,-1],"split_conditions":[-3.9110345E-1,2.5762329E-2,-2.323895E-2],"split_indices":[10,0,0],"split_type":[0,0,0],"sum_hessian":[3.4061248E0,1.635739E0,1.770386E0],"tree_param":{"num_deleted":"0","num_feature":"30","num_nodes":"3","size_leaf_vector":"1"}},{"base_weights":[2.4069056E-3,-2.4897123E-2,2.291707E-2],"categories":[],"categories_nodes":[],"categories_segments":[],"categories_sizes":[],"default_left":[0,0,0],"id":93,"left_children":[1,-1,-1],"loss_changes":[3.4132693E-2,0E0,0E0],"parents":[2147483647,0,0],"right_children":[2,-1,-1],"split_conditions":[1.5093288E-1,-2.4897123E-2,2.291707E-2],"split_indices":[24,0,0],"split_type":[0,0,0],"sum_hessian":[3.3990407E0,1.5212966E0,1.877744E0],"tree_param":{"num_deleted":"0","num_feature":"30","num_nodes":"3","size_leaf_vector":"1"}},{"base_weights":[1.2001403E-3,6.95378E-2,-2.9091721E-2,-1.6870908E-2,4.8366245E-2],"categories":[],"categories_nodes":[],"categories_segments":[],"categories_sizes":[],"default_left":[0,0,0,0,0],"id":94,"left_children":[1,3,-1,-1,-1],"loss_changes":[3.6211733E-2,4.5645352E-2,0E0,0E0,0E0],"parents":[2147483647,0,0,1,1],"right_children":[2,4,-1,-1,-1],"split_conditions":[2.9390752E-1,1.1870944E-1,-2.9091721E-2,-1.6870908E-2,4.8366245E-2],"split_indices":[24,9,0,0,0],"split_type":[0,0,0,0,0],"sum_hessian":[3.3924577E0,2.1721246E0,1.2203331E0,1.0788034E0,1.0933212E0],"tree_param":{"num_deleted":"0","num_feature":"30","num_nodes":"5","size_leaf_vector":"1"}},{"base_weights":[1.3625263E-3,3.1840764E-2,-6.3113794E-2,2.9589452E-2,-5.565356E-2],"categories":[],"categories_nodes":[],"categories_segments":[],"categories_sizes":[],"default_left":[0,0,0,0,0],"id":95,"left_children":[1,-1,3,-1,-1],"loss_changes":[3.6265504E-2,0E0,8.4351465E-2,0E0,0E0],"parents":[2147483647,0,0,2,2],"right_children":[2,-1,4,-1,-1],"split_conditions":[-8.6971253E-1,3.1840764E-2,-6.5903884E-1,2.9589452E-2,-5.565356E-2],"split_indices":[9,0,28,0,0],"split_type":[0,0,0,0,0],"sum_hessian":[3.3767745E0,1.0402528E0,2.3365216E0,1.0901268E0,1.2463949E0],"tree_param":{"num_deleted":"0","num_feature":"30","num_nodes":"5","size_leaf_vector":"1"}},{"base_weights":[2.105784E-3,-6.879017E-2,3.4536332E-2,-5.3550545E-2,2.3581566E-2],"categories":[],"categories_nodes":[],"categories_segments":[],"categories_sizes":[],"default_left":[0,0,0,0,0],"id":96,"left_children":[1,3,-1,-1,-1],"loss_changes":[4.277076E-2,6.737797E-2,0E0,0E0,0E0],"parents":[2147483647,0,0,1,1],"right_children":[2,4,-1,-1,-1],"split_conditions":[1.0131102E0,6.639734E-1,3.4536332E-2,-5.3550545E-2,2.3581566E-2],"split_indices":[28,12,0,0,0],"split_type":[0,0,0,0,0],"sum_hessian":[3.3497422E0,2.2989202E0,1.050822E0,1.1969482E0,1.101972E0],"tree_param":{"num_deleted":"0","num_feature":"30","num_nodes":"5","size_leaf_vector":"1"}},{"base_weights":[2.373003E-3,-2.8977998E-2,6.1802957E-2,5.2410472E-2,-2.1894429E-2],"categories":[],"categories_nodes":[],"categories_segments":[],"categories_sizes":[],"default_left":[0,0,0,0,0],"id":97,"left_children":[1,-1,3,-1,-1],"loss_changes":[3.1393453E-2,0E0,6.3127205E-2,0E0,0E0],"parents":[2147483647,0,0,2,2],"right_children":[2,-1,4,-1,-1],"split_conditions":[-9.2513E-1,-2.8977998E-2,-3.1713933E-1,5.2410472E-2,-2.1894429E-2],"split_indices":[2,0,2,0,0],"split_type":[0,0,0,0,0],"sum_hessian":[3.3226092E0,1.0120133E0,2.310596E0,1.09622E0,1.214376E0],"tree_param":{"num_deleted":"0","num_feature":"30","num_nodes":"5","size_leaf_vector":"1"}},{"base_weights":[2.0204573E-3,6.827721E-2,-2.7131345E-2,-1.9510426E-2,5.1497165E-2],"categories":[],"categories_nodes":[],"categories_segments":[],"categories_sizes":[],"default_left":[0,0,0,0,0],"id":98,"left_children":[1,3,-1,-1,-1],"loss_changes":[3.251612E-2,5.353859E-2,0E0,0E0,0E0],"parents":[2147483647,0,0,1,1],"right_children":[2,4,-1,-1,-1],"split_conditions":[5.5706523E-2,-2.1262327E-1,-2.7131345E-2,-1.9510426E-2,5.1497165E-2],"split_indices":[8,8,0,0,0],"split_type":[0,0,0,0,0],"sum_hessian":[3.299925E0,2.0747025E0,1.2252226E0,1.0681732E0,1.0065293E0],"tree_param":{"num_deleted":"0","num_feature":"30","num_nodes":"5","size_leaf_vector":"1"}},{"base_weights":[2.5661818E-3,3.0769741E-2,-6.0916096E-2,3.67266E-2,-6.3302085E-2],"categories":[],"categories_nodes":[],"categories_segments":[],"categories_sizes":[],"default_left":[0,0,0,0,0],"id":99,"left_children":[1,-1,3,-1,-1],"loss_changes":[3.339085E-2,0E0,1.15064204E-1,0E0,0E0],"parents":[2147483647,0,0,2,2],"right_children":[2,-1,4,-1,-1],"split_conditions":[-6.297439E-1,3.0769741E-2,-2.567072E-1,3.67266E-2,-6.3302085E-2],"split_indices":[26,0,23,0,0],"split_type":[0,0,0,0,0],"sum_hessian":[3.2756886E0,1.0329257E0,2.242763E0,1.0925478E0,1.1502151E0],"tree_param":{"num_deleted":"0","num_feature":"30","num_nodes":"5","size_leaf_vector":"1"}}]},"name":"gbtree"},"learner_model_param":{"base_score":"[5E-1]","boost_from_average":"0","num_class":"0","num_feature":"30","num_target":"1"},"objective":{"name":"binary:logistic","reg_loss_param":{"scale_pos_weight":"1"}}},"version":[3,1,1]}